FANN_FLO_2.1
num_layers=7
learning_rate=0.700000
connection_rate=1.000000
network_type=1
learning_momentum=0.000000
training_algorithm=2
train_error_function=0
train_stop_function=1
cascade_output_change_fraction=0.010000
quickprop_decay=-0.000100
quickprop_mu=1.750000
rprop_increase_factor=1.200000
rprop_decrease_factor=0.500000
rprop_delta_min=0.000000
rprop_delta_max=50.000000
rprop_delta_zero=0.100000
cascade_output_stagnation_epochs=12
cascade_candidate_change_fraction=0.010000
cascade_candidate_stagnation_epochs=12
cascade_max_out_epochs=150
cascade_min_out_epochs=50
cascade_max_cand_epochs=150
cascade_min_cand_epochs=50
cascade_num_candidate_groups=8
bit_fail_limit=8.99999976158142089844e-01
cascade_candidate_limit=1.00000000000000000000e+03
cascade_weight_multiplier=4.00000005960464477539e-01
cascade_activation_functions_count=1
cascade_activation_functions=5 
cascade_activation_steepnesses_count=1
cascade_activation_steepnesses=1.00000000000000000000e+00 
layer_sizes=9 1 1 1 1 1 1 
scale_included=0
neurons (num_inputs, activation_function, activation_steepness)=(0, 0, 0.00000000000000000000e+00) (0, 0, 0.00000000000000000000e+00) (0, 0, 0.00000000000000000000e+00) (0, 0, 0.00000000000000000000e+00) (0, 0, 0.00000000000000000000e+00) (0, 0, 0.00000000000000000000e+00) (0, 0, 0.00000000000000000000e+00) (0, 0, 0.00000000000000000000e+00) (0, 0, 0.00000000000000000000e+00) (9, 5, 1.00000000000000000000e+00) (10, 5, 1.00000000000000000000e+00) (11, 5, 1.00000000000000000000e+00) (12, 5, 1.00000000000000000000e+00) (13, 5, 1.00000000000000000000e+00) (14, 0, 5.00000000000000000000e-01) 
connections (connected_to_neuron, weight)=(0, 1.78628504276275634766e+00) (1, 1.78589808940887451172e+00) (2, 1.78645658493041992188e+00) (3, 1.78522014617919921875e+00) (4, 1.78512656688690185547e+00) (5, 1.78517985343933105469e+00) (6, 1.78669595718383789062e+00) (7, 1.78519952297210693359e+00) (8, -1.78541469573974609375e+00) (0, 1.54549300670623779297e+00) (1, 1.54246258735656738281e+00) (2, 1.53483545780181884766e+00) (3, 1.54639375209808349609e+00) (4, 1.54479432106018066406e+00) (5, 1.54149234294891357422e+00) (6, 1.54332196712493896484e+00) (7, 1.54237604141235351562e+00) (8, -1.54615294933319091797e+00) (9, -2.78810000419616699219e+00) (0, 1.15554296970367431641e+00) (1, 1.16073691844940185547e+00) (2, 1.14635169506072998047e+00) (3, 1.15694975852966308594e+00) (4, 1.15860867500305175781e+00) (5, 1.15162098407745361328e+00) (6, 1.14788901805877685547e+00) (7, 1.15375244617462158203e+00) (8, -1.15938389301300048828e+00) (9, -2.52514410018920898438e+00) (10, -1.55906605720520019531e+00) (0, -6.19814455509185791016e-01) (1, -6.24955177307128906250e-01) (2, -6.13496065139770507812e-01) (3, -6.20384335517883300781e-01) (4, -6.22670590877532958984e-01) (5, -6.18939340114593505859e-01) (6, -6.13240420818328857422e-01) (7, -6.20895564556121826172e-01) (8, 6.20857536792755126953e-01) (9, 1.44438529014587402344e+00) (10, 9.45679903030395507812e-01) (11, 9.82050776481628417969e-01) (0, 3.47248584032058715820e-01) (1, 3.50464105606079101562e-01) (2, 3.43863844871520996094e-01) (3, 3.47519755363464355469e-01) (4, 3.49197685718536376953e-01) (5, 3.47326368093490600586e-01) (6, 3.43941211700439453125e-01) (7, 3.48434150218963623047e-01) (8, -3.47572952508926391602e-01) (9, -8.15793216228485107422e-01) (10, -5.37101805210113525391e-01) (11, -5.75910568237304687500e-01) (12, 7.55222260951995849609e-01) (0, -4.91436719894409179688e-01) (1, -5.11480331420898437500e-01) (2, -4.82188344001770019531e-01) (3, -4.95222449302673339844e-01) (4, -5.03261327743530273438e-01) (5, -4.84394788742065429688e-01) (6, -4.80182290077209472656e-01) (7, -4.86684203147888183594e-01) (8, 5.56271731853485107422e-01) (9, 2.22991418838500976562e+00) (10, -7.70109295845031738281e-01) (11, 3.42607593536376953125e+00) (12, 2.33611202239990234375e+00) (13, 9.66341209411621093750e+00) 
