FANN_FLO_2.1
num_layers=3
learning_rate=0.700000
connection_rate=1.000000
network_type=0
learning_momentum=0.400000
training_algorithm=0
train_error_function=1
train_stop_function=0
cascade_output_change_fraction=0.010000
quickprop_decay=-0.000100
quickprop_mu=1.750000
rprop_increase_factor=1.200000
rprop_decrease_factor=0.500000
rprop_delta_min=0.000000
rprop_delta_max=50.000000
rprop_delta_zero=0.100000
cascade_output_stagnation_epochs=12
cascade_candidate_change_fraction=0.010000
cascade_candidate_stagnation_epochs=12
cascade_max_out_epochs=150
cascade_min_out_epochs=50
cascade_max_cand_epochs=150
cascade_min_cand_epochs=50
cascade_num_candidate_groups=2
bit_fail_limit=3.49999994039535522461e-01
cascade_candidate_limit=1.00000000000000000000e+03
cascade_weight_multiplier=4.00000005960464477539e-01
cascade_activation_functions_count=10
cascade_activation_functions=3 5 7 8 10 11 14 15 16 17 
cascade_activation_steepnesses_count=4
cascade_activation_steepnesses=2.50000000000000000000e-01 5.00000000000000000000e-01 7.50000000000000000000e-01 1.00000000000000000000e+00 
layer_sizes=49 97 4 
scale_included=0
neurons (num_inputs, activation_function, activation_steepness)=(0, 0, 0.00000000000000000000e+00) (0, 0, 0.00000000000000000000e+00) (0, 0, 0.00000000000000000000e+00) (0, 0, 0.00000000000000000000e+00) (0, 0, 0.00000000000000000000e+00) (0, 0, 0.00000000000000000000e+00) (0, 0, 0.00000000000000000000e+00) (0, 0, 0.00000000000000000000e+00) (0, 0, 0.00000000000000000000e+00) (0, 0, 0.00000000000000000000e+00) (0, 0, 0.00000000000000000000e+00) (0, 0, 0.00000000000000000000e+00) (0, 0, 0.00000000000000000000e+00) (0, 0, 0.00000000000000000000e+00) (0, 0, 0.00000000000000000000e+00) (0, 0, 0.00000000000000000000e+00) (0, 0, 0.00000000000000000000e+00) (0, 0, 0.00000000000000000000e+00) (0, 0, 0.00000000000000000000e+00) (0, 0, 0.00000000000000000000e+00) (0, 0, 0.00000000000000000000e+00) (0, 0, 0.00000000000000000000e+00) (0, 0, 0.00000000000000000000e+00) (0, 0, 0.00000000000000000000e+00) (0, 0, 0.00000000000000000000e+00) (0, 0, 0.00000000000000000000e+00) (0, 0, 0.00000000000000000000e+00) (0, 0, 0.00000000000000000000e+00) (0, 0, 0.00000000000000000000e+00) (0, 0, 0.00000000000000000000e+00) (0, 0, 0.00000000000000000000e+00) (0, 0, 0.00000000000000000000e+00) (0, 0, 0.00000000000000000000e+00) (0, 0, 0.00000000000000000000e+00) (0, 0, 0.00000000000000000000e+00) (0, 0, 0.00000000000000000000e+00) (0, 0, 0.00000000000000000000e+00) (0, 0, 0.00000000000000000000e+00) (0, 0, 0.00000000000000000000e+00) (0, 0, 0.00000000000000000000e+00) (0, 0, 0.00000000000000000000e+00) (0, 0, 0.00000000000000000000e+00) (0, 0, 0.00000000000000000000e+00) (0, 0, 0.00000000000000000000e+00) (0, 0, 0.00000000000000000000e+00) (0, 0, 0.00000000000000000000e+00) (0, 0, 0.00000000000000000000e+00) (0, 0, 0.00000000000000000000e+00) (0, 0, 0.00000000000000000000e+00) (49, 4, 5.00000000000000000000e-01) (49, 4, 5.00000000000000000000e-01) (49, 4, 5.00000000000000000000e-01) (49, 4, 5.00000000000000000000e-01) (49, 4, 5.00000000000000000000e-01) (49, 4, 5.00000000000000000000e-01) (49, 4, 5.00000000000000000000e-01) (49, 4, 5.00000000000000000000e-01) (49, 4, 5.00000000000000000000e-01) (49, 4, 5.00000000000000000000e-01) (49, 4, 5.00000000000000000000e-01) (49, 4, 5.00000000000000000000e-01) (49, 4, 5.00000000000000000000e-01) (49, 4, 5.00000000000000000000e-01) (49, 4, 5.00000000000000000000e-01) (49, 4, 5.00000000000000000000e-01) (49, 4, 5.00000000000000000000e-01) (49, 4, 5.00000000000000000000e-01) (49, 4, 5.00000000000000000000e-01) (49, 4, 5.00000000000000000000e-01) (49, 4, 5.00000000000000000000e-01) (49, 4, 5.00000000000000000000e-01) (49, 4, 5.00000000000000000000e-01) (49, 4, 5.00000000000000000000e-01) (49, 4, 5.00000000000000000000e-01) (49, 4, 5.00000000000000000000e-01) (49, 4, 5.00000000000000000000e-01) (49, 4, 5.00000000000000000000e-01) (49, 4, 5.00000000000000000000e-01) (49, 4, 5.00000000000000000000e-01) (49, 4, 5.00000000000000000000e-01) (49, 4, 5.00000000000000000000e-01) (49, 4, 5.00000000000000000000e-01) (49, 4, 5.00000000000000000000e-01) (49, 4, 5.00000000000000000000e-01) (49, 4, 5.00000000000000000000e-01) (49, 4, 5.00000000000000000000e-01) (49, 4, 5.00000000000000000000e-01) (49, 4, 5.00000000000000000000e-01) (49, 4, 5.00000000000000000000e-01) (49, 4, 5.00000000000000000000e-01) (49, 4, 5.00000000000000000000e-01) (49, 4, 5.00000000000000000000e-01) (49, 4, 5.00000000000000000000e-01) (49, 4, 5.00000000000000000000e-01) (49, 4, 5.00000000000000000000e-01) (49, 4, 5.00000000000000000000e-01) (49, 4, 5.00000000000000000000e-01) (49, 4, 5.00000000000000000000e-01) (49, 4, 5.00000000000000000000e-01) (49, 4, 5.00000000000000000000e-01) (49, 4, 5.00000000000000000000e-01) (49, 4, 5.00000000000000000000e-01) (49, 4, 5.00000000000000000000e-01) (49, 4, 5.00000000000000000000e-01) (49, 4, 5.00000000000000000000e-01) (49, 4, 5.00000000000000000000e-01) (49, 4, 5.00000000000000000000e-01) (49, 4, 5.00000000000000000000e-01) (49, 4, 5.00000000000000000000e-01) (49, 4, 5.00000000000000000000e-01) (49, 4, 5.00000000000000000000e-01) (49, 4, 5.00000000000000000000e-01) (49, 4, 5.00000000000000000000e-01) (49, 4, 5.00000000000000000000e-01) (49, 4, 5.00000000000000000000e-01) (49, 4, 5.00000000000000000000e-01) (49, 4, 5.00000000000000000000e-01) (49, 4, 5.00000000000000000000e-01) (49, 4, 5.00000000000000000000e-01) (49, 4, 5.00000000000000000000e-01) (49, 4, 5.00000000000000000000e-01) (49, 4, 5.00000000000000000000e-01) (49, 4, 5.00000000000000000000e-01) (49, 4, 5.00000000000000000000e-01) (49, 4, 5.00000000000000000000e-01) (49, 4, 5.00000000000000000000e-01) (49, 4, 5.00000000000000000000e-01) (49, 4, 5.00000000000000000000e-01) (49, 4, 5.00000000000000000000e-01) (49, 4, 5.00000000000000000000e-01) (49, 4, 5.00000000000000000000e-01) (49, 4, 5.00000000000000000000e-01) (49, 4, 5.00000000000000000000e-01) (49, 4, 5.00000000000000000000e-01) (49, 4, 5.00000000000000000000e-01) (49, 4, 5.00000000000000000000e-01) (49, 4, 5.00000000000000000000e-01) (49, 4, 5.00000000000000000000e-01) (49, 4, 5.00000000000000000000e-01) (49, 4, 5.00000000000000000000e-01) (49, 4, 5.00000000000000000000e-01) (49, 4, 5.00000000000000000000e-01) (49, 4, 5.00000000000000000000e-01) (49, 4, 5.00000000000000000000e-01) (49, 4, 5.00000000000000000000e-01) (0, 0, 0.00000000000000000000e+00) (97, 4, 5.00000000000000000000e-01) (97, 4, 5.00000000000000000000e-01) (97, 4, 5.00000000000000000000e-01) (0, 0, 0.00000000000000000000e+00) 
connections (connected_to_neuron, weight)=(0, -1.37439653277397155762e-01) (1, -7.06103220582008361816e-02) (2, 7.48657621443271636963e-03) (3, -2.12254434823989868164e-01) (4, -4.01963889598846435547e-02) (5, 1.31709262728691101074e-01) (6, 7.21589662134647369385e-03) (7, -1.69748999178409576416e-02) (8, -1.62468463182449340820e-01) (9, 2.35806092619895935059e-01) (10, 1.06497101485729217529e-01) (11, 2.38801017403602600098e-02) (12, -4.45495635271072387695e-01) (13, -1.53822720050811767578e-01) (14, -1.94710806012153625488e-01) (15, -4.20937687158584594727e-01) (16, 2.67350018024444580078e-01) (17, 3.25072318315505981445e-01) (18, 2.18903228640556335449e-01) (19, 1.09173238277435302734e-01) (20, -1.11241176724433898926e-01) (21, 2.82433386892080307007e-02) (22, -9.15090728085488080978e-04) (23, 5.59533953666687011719e-01) (24, 3.60747069120407104492e-01) (25, 4.69421565532684326172e-01) (26, 5.02890527248382568359e-01) (27, 2.21842944622039794922e-01) (28, -7.52960219979286193848e-02) (29, 4.25459176301956176758e-01) (30, 4.90321695804595947266e-01) (31, 7.88169384002685546875e-01) (32, 8.44945088028907775879e-02) (33, 5.38077592849731445312e-01) (34, 7.42652595043182373047e-01) (35, 4.38762962818145751953e-01) (36, 1.21775351464748382568e-01) (37, 3.41857701539993286133e-01) (38, 3.77903342247009277344e-01) (39, 1.71443656086921691895e-01) (40, -4.96911369264125823975e-02) (41, 3.28136682510375976562e-01) (42, 1.01147979497909545898e-01) (43, 7.48589098453521728516e-01) (44, 3.35030764341354370117e-01) (45, 1.66604891419410705566e-01) (46, -8.26813187450170516968e-03) (47, -6.20539262890815734863e-02) (48, -1.62187778949737548828e+00) (0, -2.62777924537658691406e-01) (1, -4.00598019361495971680e-01) (2, -4.83598500490188598633e-01) (3, -4.95245128870010375977e-01) (4, -4.19726401567459106445e-01) (5, -5.84461279213428497314e-02) (6, -2.01272800564765930176e-01) (7, -2.28989094495773315430e-01) (8, -2.03969761729240417480e-01) (9, -2.11121425032615661621e-01) (10, -2.30302721261978149414e-01) (11, -2.32113435864448547363e-01) (12, -7.39578604698181152344e-01) (13, -4.20988649129867553711e-01) (14, -2.49743074178695678711e-01) (15, -1.46908223628997802734e-01) (16, 1.76392644643783569336e-01) (17, -9.43148210644721984863e-02) (18, -2.71132469177246093750e-01) (19, -6.21897697448730468750e-01) (20, -4.32583779096603393555e-01) (21, -2.61697471141815185547e-01) (22, -1.62423059344291687012e-01) (23, -2.68543809652328491211e-01) (24, 4.48015600442886352539e-01) (25, 1.20857641100883483887e-01) (26, 8.18456262350082397461e-02) (27, -2.85403698682785034180e-01) (28, -4.06978517770767211914e-01) (29, -5.45340240001678466797e-01) (30, -3.36088627576828002930e-01) (31, -4.02980566024780273438e-01) (32, -1.40114799141883850098e-01) (33, 1.19252853095531463623e-01) (34, 2.33992308378219604492e-01) (35, -5.10445535182952880859e-02) (36, -6.34245216846466064453e-01) (37, -2.59373426437377929688e-01) (38, -6.23127758502960205078e-01) (39, -2.89516746997833251953e-01) (40, -1.09282672405242919922e-01) (41, -2.08069846034049987793e-01) (42, 1.98314115405082702637e-01) (43, 1.99690878391265869141e-01) (44, -4.79034841060638427734e-01) (45, -5.83794824779033660889e-02) (46, -3.07556062936782836914e-01) (47, -3.33730906248092651367e-01) (48, -1.48383057117462158203e+00) (0, -2.22951635718345642090e-01) (1, -1.06716781854629516602e-01) (2, -8.61483365297317504883e-02) (3, -1.78251922130584716797e-01) (4, -5.07530391216278076172e-01) (5, -3.40794146060943603516e-01) (6, -7.43860844522714614868e-03) (7, 2.32886359095573425293e-01) (8, -1.46598085761070251465e-01) (9, -2.58251011371612548828e-01) (10, -1.02905705571174621582e-02) (11, -1.77279576659202575684e-01) (12, -4.73063409328460693359e-01) (13, -1.01777352392673492432e-01) (14, -8.75655859708786010742e-02) (15, 2.27490022778511047363e-01) (16, -3.42440128326416015625e-01) (17, -2.91168749332427978516e-01) (18, -8.62423777580261230469e-02) (19, -3.38926225900650024414e-01) (20, -3.94381225109100341797e-01) (21, -3.50750684738159179688e-01) (22, -2.43604451417922973633e-01) (23, -4.65055614709854125977e-01) (24, -2.80013293027877807617e-01) (25, -2.39581137895584106445e-01) (26, -3.67624491453170776367e-01) (27, -3.49544495344161987305e-01) (28, -4.95505928993225097656e-01) (29, -3.06588470935821533203e-01) (30, -5.22334456443786621094e-01) (31, -3.16853404045104980469e-01) (32, 4.91785705089569091797e-02) (33, -2.83062696456909179688e-01) (34, -4.82592463493347167969e-01) (35, -7.31663525104522705078e-01) (36, -3.43694835901260375977e-01) (37, -3.87184828519821166992e-01) (38, -2.47072055935859680176e-01) (39, -1.39717116951942443848e-01) (40, 3.16959410905838012695e-01) (41, -8.86423438787460327148e-02) (42, -9.57588478922843933105e-02) (43, -9.21971678733825683594e-01) (44, -6.09515607357025146484e-01) (45, -2.93986260890960693359e-01) (46, -1.28160893917083740234e-01) (47, -9.30419564247131347656e-02) (48, -9.96869742870330810547e-01) (0, -6.44570216536521911621e-02) (1, -2.49643862247467041016e-01) (2, -5.54116904735565185547e-01) (3, -4.34934318065643310547e-01) (4, -7.91788876056671142578e-01) (5, -1.79938465356826782227e-01) (6, -2.64512091875076293945e-01) (7, -3.24911683797836303711e-01) (8, -1.02262176573276519775e-01) (9, -3.45975667238235473633e-01) (10, -2.80882626771926879883e-01) (11, -3.72302234172821044922e-01) (12, -5.33150374889373779297e-01) (13, -4.18031990528106689453e-01) (14, -2.70080864429473876953e-01) (15, -1.75405472517013549805e-01) (16, 2.70440965890884399414e-01) (17, -2.47288644313812255859e-01) (18, -9.55218002200126647949e-02) (19, -7.00763285160064697266e-01) (20, -6.13001644611358642578e-01) (21, -4.66345727443695068359e-01) (22, -4.55457627773284912109e-01) (23, -5.56735873222351074219e-01) (24, 6.70819759368896484375e-01) (25, 1.36670330539345741272e-02) (26, 2.23657384514808654785e-01) (27, -3.58017534017562866211e-01) (28, -3.06609660387039184570e-01) (29, -4.99375224113464355469e-01) (30, -3.69725465774536132812e-01) (31, -1.05934405326843261719e+00) (32, -2.88349002599716186523e-01) (33, -6.58772289752960205078e-02) (34, 8.39395076036453247070e-02) (35, -1.37027457356452941895e-01) (36, -7.25549995899200439453e-01) (37, -1.92491903901100158691e-01) (38, -4.62362706661224365234e-01) (39, -2.80167907476425170898e-01) (40, -4.57382559776306152344e-01) (41, -3.45504432916641235352e-01) (42, 2.09920987486839294434e-01) (43, 3.80605533719062805176e-02) (44, -5.89773535728454589844e-01) (45, -1.80836871266365051270e-01) (46, 2.26272568106651306152e-02) (47, -1.78471375256776809692e-02) (48, -1.37234699726104736328e+00) (0, 2.35658455640077590942e-02) (1, -9.75315421819686889648e-02) (2, -2.16159358620643615723e-01) (3, -1.47896662354469299316e-01) (4, -4.52030181884765625000e-01) (5, -1.23964518308639526367e-01) (6, -1.20109617710113525391e-01) (7, -1.85483798384666442871e-01) (8, -4.85623963177204132080e-02) (9, -3.51683199405670166016e-01) (10, -3.80539923906326293945e-01) (11, -2.69712775945663452148e-01) (12, -1.45980626344680786133e-01) (13, -6.11710734665393829346e-02) (14, 3.93335781991481781006e-02) (15, 3.42920795083045959473e-02) (16, -1.99810266494750976562e-01) (17, -4.00738507509231567383e-01) (18, -3.62674444913864135742e-01) (19, -5.08495807647705078125e-01) (20, -4.00546222925186157227e-01) (21, -4.06825393438339233398e-01) (22, -2.19613015651702880859e-01) (23, -2.58635371923446655273e-01) (24, -1.94171428680419921875e-01) (25, -3.86967778205871582031e-01) (26, -3.43407362699508666992e-01) (27, -5.05940020084381103516e-01) (28, -4.46647107601165771484e-01) (29, -5.23543894290924072266e-01) (30, -3.57950836420059204102e-01) (31, -5.04849851131439208984e-01) (32, -1.05584360659122467041e-01) (33, -5.42617440223693847656e-01) (34, -4.10390615463256835938e-01) (35, -7.07211971282958984375e-01) (36, -5.46514213085174560547e-01) (37, -4.57471847534179687500e-01) (38, -5.88887095451354980469e-01) (39, -4.94450293481349945068e-02) (40, -5.98744153976440429688e-02) (41, -2.22373679280281066895e-01) (42, -9.16322097182273864746e-02) (43, -7.30592668056488037109e-01) (44, -5.33522069454193115234e-01) (45, -2.74352759122848510742e-01) (46, -9.38436836004257202148e-02) (47, -1.01776257157325744629e-01) (48, -9.60876166820526123047e-01) (0, -5.73280677199363708496e-02) (1, -1.34502500295639038086e-01) (2, -1.83543249964714050293e-01) (3, -1.73831373453140258789e-01) (4, -4.62062120437622070312e-01) (5, -1.17597244679927825928e-01) (6, -1.20788857340812683105e-01) (7, -1.35004147887229919434e-01) (8, -6.66051590815186500549e-03) (9, -4.97840911149978637695e-01) (10, -3.44753801822662353516e-01) (11, -3.30476731061935424805e-01) (12, -1.92048832774162292480e-01) (13, 1.96486935019493103027e-02) (14, 8.53121057152748107910e-02) (15, -2.75831483304500579834e-02) (16, -1.92120730876922607422e-01) (17, -4.38846379518508911133e-01) (18, -2.84541040658950805664e-01) (19, -3.77764374017715454102e-01) (20, -4.90812301635742187500e-01) (21, -3.87940883636474609375e-01) (22, -2.10007369518280029297e-01) (23, -3.62119764089584350586e-01) (24, -3.35096508264541625977e-01) (25, -4.29279923439025878906e-01) (26, -5.48105359077453613281e-01) (27, -5.26940464973449707031e-01) (28, -4.17447984218597412109e-01) (29, -5.16052842140197753906e-01) (30, -3.17171514034271240234e-01) (31, -5.22294104099273681641e-01) (32, 4.20561134815216064453e-02) (33, -5.01271665096282958984e-01) (34, -5.30817210674285888672e-01) (35, -8.74200880527496337891e-01) (36, -5.40281653404235839844e-01) (37, -4.79272961616516113281e-01) (38, -4.46996033191680908203e-01) (39, -1.68585896492004394531e-01) (40, -9.67593118548393249512e-03) (41, -3.40172410011291503906e-01) (42, -4.44384105503559112549e-02) (43, -9.25031900405883789062e-01) (44, -7.01645314693450927734e-01) (45, -4.12902563810348510742e-01) (46, -1.02729938924312591553e-01) (47, 8.21399912238121032715e-02) (48, -8.33335340023040771484e-01) (0, -1.78153917193412780762e-01) (1, 9.90776345133781433105e-03) (2, -6.51472583413124084473e-02) (3, -6.92458972334861755371e-02) (4, -3.86371016502380371094e-01) (5, -1.16591431200504302979e-01) (6, -1.90931767225265502930e-01) (7, 2.06518210470676422119e-02) (8, 1.26193434000015258789e-01) (9, -7.39891156554222106934e-02) (10, -3.22337192483246326447e-03) (11, -1.69714629650115966797e-01) (12, -4.19027745723724365234e-01) (13, -5.55920749902725219727e-02) (14, -2.11197033524513244629e-01) (15, 2.67175197601318359375e-01) (16, -1.26118972897529602051e-01) (17, 1.70040223747491836548e-02) (18, -1.57626464962959289551e-01) (19, -3.80118668079376220703e-01) (20, -5.01795709133148193359e-01) (21, -4.25059407949447631836e-01) (22, -2.63452768325805664062e-01) (23, -5.63601434230804443359e-01) (24, 2.09860220551490783691e-01) (25, -1.02934204041957855225e-01) (26, -2.61375963687896728516e-01) (27, -4.71879094839096069336e-01) (28, -4.96396183967590332031e-01) (29, -3.98881256580352783203e-01) (30, -6.03485703468322753906e-01) (31, -6.19608819484710693359e-01) (32, 1.61530837416648864746e-01) (33, -3.04872810840606689453e-01) (34, -4.07847911119461059570e-01) (35, -6.59922122955322265625e-01) (36, -6.64667665958404541016e-01) (37, -4.76642638444900512695e-01) (38, -3.71817916631698608398e-01) (39, -7.72968009114265441895e-02) (40, 1.17494091391563415527e-01) (41, -1.85410171747207641602e-01) (42, -3.12605679035186767578e-01) (43, -7.16768026351928710938e-01) (44, -5.94838619232177734375e-01) (45, -2.48102352023124694824e-01) (46, -1.18712402880191802979e-01) (47, -1.06778346002101898193e-01) (48, -1.15921354293823242188e+00) (0, -3.78515601158142089844e-01) (1, -1.47054404020309448242e-01) (2, 9.69518199563026428223e-02) (3, 7.80186727643013000488e-02) (4, 3.83241325616836547852e-01) (5, -1.71059861779212951660e-01) (6, -3.96388262510299682617e-01) (7, -3.49707067012786865234e-01) (8, -4.67478930950164794922e-01) (9, 1.41990482807159423828e-01) (10, 5.09228527545928955078e-01) (11, 1.38721659779548645020e-01) (12, 1.33569270372390747070e-01) (13, -2.43663251399993896484e-01) (14, -7.26438164710998535156e-01) (15, -2.88362383842468261719e-01) (16, -1.80616810917854309082e-01) (17, 3.38672608137130737305e-01) (18, 3.94101500511169433594e-01) (19, 3.23582589626312255859e-01) (20, 3.78766775131225585938e-01) (21, 1.57575890421867370605e-01) (22, 4.17247802019119262695e-01) (23, 3.19733262062072753906e-01) (24, 1.31973428651690483093e-02) (25, 1.36480510234832763672e-01) (26, 3.91993880271911621094e-01) (27, 1.93262379616498947144e-02) (28, -3.84296715259552001953e-01) (29, 2.53948360681533813477e-01) (30, 1.01375639438629150391e-01) (31, 2.33961448073387145996e-01) (32, 3.50269339978694915771e-02) (33, 4.50613796710968017578e-01) (34, 2.49192371964454650879e-01) (35, 1.64523705840110778809e-01) (36, 1.61633044481277465820e-01) (37, 2.88889169692993164062e-01) (38, 7.56442323327064514160e-02) (39, -4.46156293153762817383e-01) (40, 6.04474321007728576660e-02) (41, 1.89572535455226898193e-02) (42, -1.58756911754608154297e-01) (43, 4.72770109772682189941e-02) (44, 2.87439730018377304077e-02) (45, -2.30076089501380920410e-01) (46, -5.44480025768280029297e-01) (47, -5.27543485164642333984e-01) (48, -1.78954470157623291016e+00) (0, -2.16259323060512542725e-02) (1, -1.38572052121162414551e-01) (2, -1.64790257811546325684e-01) (3, 3.19234794005751609802e-04) (4, -1.71452462673187255859e-01) (5, -1.38833075761795043945e-01) (6, -3.99189740419387817383e-02) (7, -1.22461736202239990234e-01) (8, 2.15644016861915588379e-02) (9, -1.92497000098228454590e-01) (10, -2.12856888771057128906e-01) (11, -1.94381386041641235352e-01) (12, 2.78038140386343002319e-02) (13, -2.26510707288980484009e-02) (14, -2.31294315308332443237e-02) (15, -7.64848738908767700195e-02) (16, -2.26764474064111709595e-02) (17, -1.63066044449806213379e-01) (18, -1.55934810638427734375e-01) (19, -2.74395495653152465820e-01) (20, -3.23726415634155273438e-01) (21, -1.04889571666717529297e-01) (22, -1.67283073067665100098e-01) (23, -1.33840128779411315918e-01) (24, -4.45621460676193237305e-02) (25, -2.52710819244384765625e-01) (26, -2.17908829450607299805e-01) (27, -3.18854838609695434570e-01) (28, -2.96897292137145996094e-01) (29, -2.61146396398544311523e-01) (30, 5.33971562981605529785e-03) (31, -9.61977839469909667969e-02) (32, -7.70590305328369140625e-02) (33, -1.79550454020500183105e-01) (34, -1.85550451278686523438e-01) (35, -3.42089295387268066406e-01) (36, -2.86035984754562377930e-01) (37, -1.97405651211738586426e-01) (38, -1.35246038436889648438e-01) (39, -4.12275493144989013672e-02) (40, 1.52471736073493957520e-02) (41, -2.43122801184654235840e-01) (42, -1.70523479580879211426e-01) (43, -2.29387253522872924805e-01) (44, -2.20656409859657287598e-01) (45, -2.21391320228576660156e-01) (46, -1.07929214835166931152e-01) (47, 3.12808007001876831055e-02) (48, -1.52839827537536621094e+00) (0, -1.75192981958389282227e-01) (1, -2.29567348957061767578e-01) (2, -4.34021353721618652344e-02) (3, -1.88385516405105590820e-01) (4, -8.94759178161621093750e-01) (5, -8.51071000099182128906e-01) (6, -5.44197440147399902344e-01) (7, 1.54207320883870124817e-02) (8, 1.02409638464450836182e-01) (9, -4.28414940834045410156e-01) (10, -2.72227767854928970337e-02) (11, -2.22660750150680541992e-02) (12, -1.31341195106506347656e+00) (13, -2.74325877428054809570e-01) (14, 1.63391694426536560059e-01) (15, 1.23698726296424865723e-01) (16, -5.62365233898162841797e-01) (17, -6.56792640686035156250e-01) (18, -2.32672020792961120605e-01) (19, -4.25262540578842163086e-01) (20, -6.20958685874938964844e-01) (21, 1.00520305335521697998e-01) (22, 2.16870710253715515137e-01) (23, 1.79298311471939086914e-01) (24, -5.45179784297943115234e-01) (25, -5.26936054229736328125e-01) (26, -8.74149382114410400391e-01) (27, -4.37901228666305541992e-01) (28, -1.65597051382064819336e-02) (29, -3.58087301254272460938e-01) (30, -8.19660350680351257324e-02) (31, 5.18820643424987792969e-01) (32, -5.01840591430664062500e-01) (33, -6.21279239654541015625e-01) (34, -5.42919754981994628906e-01) (35, 2.71972268819808959961e-01) (36, -3.06148151867091655731e-03) (37, -7.59314466267824172974e-03) (38, 9.46635901927947998047e-01) (39, 6.11932389438152313232e-02) (40, -1.45270556211471557617e-01) (41, -4.82854753732681274414e-01) (42, 5.19325733184814453125e-01) (43, -5.72044312953948974609e-01) (44, -1.06826372444629669189e-01) (45, 1.05825521051883697510e-01) (46, 5.73173403739929199219e-01) (47, 9.15887504816055297852e-02) (48, -1.30847656726837158203e+00) (0, -1.36241182684898376465e-01) (1, -2.39160470664501190186e-02) (2, -7.45745822787284851074e-02) (3, -1.01366601884365081787e-01) (4, 2.33265962451696395874e-02) (5, -7.35137760639190673828e-02) (6, -1.18572369217872619629e-01) (7, -2.47440069913864135742e-01) (8, 1.51918232440948486328e-01) (9, 5.81391416490077972412e-02) (10, 1.76162376999855041504e-01) (11, -4.49662655591964721680e-02) (12, -1.68217375874519348145e-01) (13, -3.27947437763214111328e-01) (14, -1.89039528369903564453e-01) (15, -1.19190357625484466553e-01) (16, 2.25186318159103393555e-01) (17, 2.04811662435531616211e-01) (18, -5.20056337118148803711e-02) (19, 7.10289999842643737793e-02) (20, -6.32773786783218383789e-02) (21, 1.94848507642745971680e-01) (22, 3.28226089477539062500e-01) (23, 1.48830056190490722656e-01) (24, 1.59337416291236877441e-01) (25, -3.37622724473476409912e-02) (26, -1.27363600768148899078e-03) (27, -8.34804475307464599609e-02) (28, -2.24046230316162109375e-01) (29, -1.82420998811721801758e-01) (30, 1.37257538735866546631e-02) (31, 1.15494333207607269287e-01) (32, -2.60769069194793701172e-01) (33, 2.17265516519546508789e-01) (34, -1.67193729430437088013e-02) (35, -1.82402104139328002930e-01) (36, -2.21784651279449462891e-01) (37, -4.64081428945064544678e-02) (38, -7.10147060453891754150e-03) (39, -1.25653907656669616699e-01) (40, -3.36214274168014526367e-01) (41, 8.40113162994384765625e-02) (42, -2.13801264762878417969e-01) (43, -3.19833084940910339355e-02) (44, -1.31247550249099731445e-01) (45, -7.40301162004470825195e-02) (46, -1.46016761660575866699e-01) (47, -2.03686207532882690430e-01) (48, -1.62942457199096679688e+00) (0, -3.45166176557540893555e-02) (1, -4.45133261382579803467e-02) (2, -1.61495819687843322754e-01) (3, -1.77410379052162170410e-01) (4, -2.66875009983777999878e-02) (5, 1.05621173977851867676e-01) (6, 1.59337688237428665161e-02) (7, -6.38964250683784484863e-02) (8, -2.87040024995803833008e-01) (9, -1.12315230071544647217e-01) (10, -3.87810021638870239258e-02) (11, -7.34968483448028564453e-02) (12, -1.25681400299072265625e-01) (13, -1.32686048746109008789e-01) (14, -1.42261043190956115723e-01) (15, -6.50374889373779296875e-02) (16, -1.56459599733352661133e-01) (17, -4.38135042786598205566e-02) (18, 1.46821931004524230957e-01) (19, -6.73852488398551940918e-02) (20, 8.52258056402206420898e-02) (21, -7.77781680226325988770e-02) (22, -4.09740163013339042664e-03) (23, 3.88310216367244720459e-02) (24, -1.42089515924453735352e-01) (25, -1.13073013722896575928e-01) (26, -1.01249456405639648438e-01) (27, -9.66961309313774108887e-02) (28, -1.82481035590171813965e-01) (29, 7.20289396122097969055e-03) (30, -6.62963697686791419983e-03) (31, 6.17193281650543212891e-02) (32, -5.30884899199008941650e-02) (33, -1.32298162207007408142e-02) (34, 1.48090124130249023438e-01) (35, 2.33370497822761535645e-01) (36, -1.94345563650131225586e-02) (37, 9.17822644114494323730e-02) (38, 4.77826781570911407471e-02) (39, -1.22940473258495330811e-01) (40, -3.13104912638664245605e-02) (41, 6.96078315377235412598e-02) (42, 1.47456511855125427246e-01) (43, 1.46765867248177528381e-02) (44, -3.50091196596622467041e-02) (45, -4.69049140810966491699e-02) (46, -1.04784481227397918701e-01) (47, -2.17477023601531982422e-01) (48, -1.69199693202972412109e+00) (0, 2.41175424307584762573e-02) (1, -1.27018228173255920410e-01) (2, -2.48053640127182006836e-01) (3, -7.96317383646965026855e-02) (4, -3.92132967710494995117e-01) (5, -1.34207963943481445312e-01) (6, -2.06699058413505554199e-01) (7, -1.53640493750572204590e-01) (8, 1.36328116059303283691e-01) (9, -4.15139317512512207031e-01) (10, -1.79620385169982910156e-01) (11, -3.02055567502975463867e-01) (12, -2.48031079769134521484e-01) (13, -1.08424812555313110352e-01) (14, -1.93250067532062530518e-02) (15, -2.11262609809637069702e-02) (16, -2.60407149791717529297e-01) (17, -5.19247174263000488281e-01) (18, -2.77916640043258666992e-01) (19, -3.65488946437835693359e-01) (20, -3.21006655693054199219e-01) (21, -3.16725432872772216797e-01) (22, -2.55520552396774291992e-01) (23, -1.82766184210777282715e-01) (24, -3.15773487091064453125e-01) (25, -3.28352957963943481445e-01) (26, -3.75614911317825317383e-01) (27, -2.91235476732254028320e-01) (28, -3.45035254955291748047e-01) (29, -3.04860532283782958984e-01) (30, -3.74724477529525756836e-01) (31, -1.25350162386894226074e-01) (32, -1.31564393639564514160e-01) (33, -5.49422025680541992188e-01) (34, -4.10630583763122558594e-01) (35, -6.03657782077789306641e-01) (36, -2.77970194816589355469e-01) (37, -2.26714968681335449219e-01) (38, -2.14131057262420654297e-01) (39, -6.08301116153597831726e-03) (40, 1.46466866135597229004e-01) (41, -3.41796129941940307617e-01) (42, -1.72940120100975036621e-01) (43, -7.33026087284088134766e-01) (44, -4.01272416114807128906e-01) (45, -3.48750680685043334961e-01) (46, -1.47865608334541320801e-01) (47, -5.59775009751319885254e-02) (48, -1.22515928745269775391e+00) (0, 5.98890669643878936768e-02) (1, -4.90821227431297302246e-02) (2, -1.72107487916946411133e-01) (3, 7.80604928731918334961e-02) (4, -5.23313283920288085938e-01) (5, -2.35179618000984191895e-01) (6, -3.13043326139450073242e-01) (7, -1.49935901165008544922e-01) (8, 3.60722541809082031250e-01) (9, -4.31849509477615356445e-01) (10, -3.06572198867797851562e-01) (11, -3.72103542089462280273e-01) (12, -1.34514331817626953125e-01) (13, 4.79623302817344665527e-02) (14, 1.28260729834437370300e-02) (15, -1.08016561716794967651e-02) (16, -2.53229886293411254883e-01) (17, -4.55627948045730590820e-01) (18, -4.47781890630722045898e-01) (19, -4.80389922857284545898e-01) (20, -6.70447051525115966797e-01) (21, -5.16777217388153076172e-01) (22, -4.45202767848968505859e-01) (23, -6.62142395973205566406e-01) (24, -2.42924407124519348145e-01) (25, -4.50043916702270507812e-01) (26, -3.97969722747802734375e-01) (27, -6.60097718238830566406e-01) (28, -2.86239951848983764648e-01) (29, -6.97241723537445068359e-01) (30, -5.23450911045074462891e-01) (31, -7.33920812606811523438e-01) (32, -2.25813075900077819824e-01) (33, -7.00264036655426025391e-01) (34, -6.63704156875610351562e-01) (35, -1.01803541183471679688e+00) (36, -6.57877981662750244141e-01) (37, -3.58036160469055175781e-01) (38, -5.35928010940551757812e-01) (39, -1.19947694242000579834e-01) (40, -1.53371036052703857422e-01) (41, -4.05129194259643554688e-01) (42, -1.88394993543624877930e-01) (43, -1.23445260524749755859e+00) (44, -7.25456118583679199219e-01) (45, -4.98181998729705810547e-01) (46, -7.76351839303970336914e-02) (47, 1.68066486716270446777e-01) (48, -3.88065367937088012695e-01) (0, 1.88872992992401123047e-01) (1, 1.79667979478836059570e-01) (2, 2.36520886421203613281e-01) (3, 2.68315225839614868164e-01) (4, -2.77111828327178955078e-01) (5, -6.42743557691574096680e-02) (6, -4.08928602933883666992e-01) (7, -2.07304194569587707520e-01) (8, 2.63267427682876586914e-01) (9, 5.14320842921733856201e-02) (10, -4.54878956079483032227e-02) (11, -6.67990371584892272949e-02) (12, 6.05683326721191406250e-02) (13, -2.99201980233192443848e-02) (14, -1.60760104656219482422e-01) (15, -3.87846022844314575195e-01) (16, 1.79944500327110290527e-01) (17, 6.57278820872306823730e-02) (18, 1.10540157184004783630e-02) (19, 1.35547176003456115723e-01) (20, -3.31412434577941894531e-01) (21, -9.47764422744512557983e-03) (22, 9.82445552945137023926e-02) (23, -1.63975842297077178955e-02) (24, -1.08059599995613098145e-01) (25, -2.26965740323066711426e-01) (26, 1.25348970293998718262e-01) (27, 1.50730716995894908905e-03) (28, 3.02555590867996215820e-01) (29, -9.92362201213836669922e-02) (30, 8.87576118111610412598e-02) (31, -1.46914720535278320312e-01) (32, -4.19234931468963623047e-01) (33, -3.67167621850967407227e-01) (34, -2.68571376800537109375e-01) (35, -2.18866676092147827148e-01) (36, -3.05155396461486816406e-01) (37, -4.31546457111835479736e-02) (38, 1.88946366310119628906e-01) (39, -7.02787116169929504395e-02) (40, -3.71570795774459838867e-01) (41, -2.39492550492286682129e-01) (42, -3.91933321952819824219e-01) (43, -1.43779084086418151855e-01) (44, -1.35927781462669372559e-01) (45, -2.73885894566774368286e-02) (46, 1.38447815552353858948e-02) (47, 2.34601795673370361328e-01) (48, -1.77806842327117919922e+00) (0, -4.45337556302547454834e-02) (1, -1.76372036337852478027e-01) (2, -2.86336243152618408203e-01) (3, -2.86995410919189453125e-01) (4, -3.93919765949249267578e-01) (5, -8.76569151878356933594e-02) (6, -7.27166011929512023926e-02) (7, -9.02394056320190429688e-02) (8, -3.71045130304992198944e-03) (9, -2.88809627294540405273e-01) (10, -2.96595931053161621094e-01) (11, -2.78769820928573608398e-01) (12, -3.63184690475463867188e-01) (13, -2.16220393776893615723e-01) (14, -1.52863025665283203125e-01) (15, 1.10512888059020042419e-02) (16, -3.68926227092742919922e-02) (17, -1.15877732634544372559e-01) (18, -2.27705180644989013672e-01) (19, -3.37713301181793212891e-01) (20, -5.04725158214569091797e-01) (21, -3.14327657222747802734e-01) (22, -2.27855950593948364258e-01) (23, -2.83268004655838012695e-01) (24, 2.07517161965370178223e-01) (25, -1.62018030881881713867e-01) (26, -8.44599232077598571777e-02) (27, -3.51261824369430541992e-01) (28, -4.19495135545730590820e-01) (29, -4.22106534242630004883e-01) (30, -3.88357222080230712891e-01) (31, -5.78094601631164550781e-01) (32, 2.43235677480697631836e-02) (33, -1.84460639953613281250e-01) (34, -1.50968119502067565918e-01) (35, -2.15148776769638061523e-01) (36, -4.73421871662139892578e-01) (37, -2.36118525266647338867e-01) (38, -4.54218506813049316406e-01) (39, -1.33229419589042663574e-01) (40, -1.83013707399368286133e-01) (41, -2.23381265997886657715e-01) (42, 6.88762310892343521118e-03) (43, -3.14958840608596801758e-01) (44, -4.38900977373123168945e-01) (45, -2.31054648756980895996e-01) (46, -9.22001525759696960449e-02) (47, -1.63783162832260131836e-01) (48, -1.36099576950073242188e+00) (0, -2.44404524564743041992e-01) (1, -1.57919868826866149902e-01) (2, 5.64726330339908599854e-02) (3, -7.38045647740364074707e-02) (4, -3.72535027563571929932e-02) (5, -8.11666920781135559082e-02) (6, -1.61523655056953430176e-01) (7, 1.26355094835162162781e-02) (8, -1.51278614997863769531e-01) (9, 1.27052307128906250000e-01) (10, 8.34401771426200866699e-02) (11, 5.21804206073284149170e-02) (12, -1.92523792386054992676e-01) (13, -3.27549397945404052734e-01) (14, -3.37084650993347167969e-01) (15, 9.53234452754259109497e-03) (16, 2.22856570035219192505e-02) (17, 1.45254924893379211426e-01) (18, 7.10088387131690979004e-02) (19, 1.28270382992923259735e-03) (20, -5.24052269756793975830e-02) (21, -1.00532742217183113098e-02) (22, 1.36305630207061767578e-01) (23, -3.17723490297794342041e-02) (24, 4.68029491603374481201e-02) (25, -1.40490204095840454102e-01) (26, -3.01036667078733444214e-02) (27, -1.58618405461311340332e-01) (28, -2.26757079362869262695e-01) (29, -1.78026095032691955566e-01) (30, -2.48502239584922790527e-01) (31, 5.02320230007171630859e-02) (32, 3.78442928194999694824e-02) (33, 7.90985226631164550781e-02) (34, 2.18233894556760787964e-02) (35, -1.81622520089149475098e-01) (36, -2.04697206616401672363e-01) (37, -2.26275891065597534180e-01) (38, 3.35881449282169342041e-02) (39, -1.24275296926498413086e-01) (40, -8.46309661865234375000e-02) (41, 1.19558252394199371338e-01) (42, -7.71857947111129760742e-02) (43, -2.75046557188034057617e-01) (44, -2.34465584158897399902e-01) (45, -2.74290710687637329102e-01) (46, -1.98466807603836059570e-01) (47, -3.45030128955841064453e-01) (48, -1.63527572154998779297e+00) (0, -1.17885217070579528809e-01) (1, -1.23072482645511627197e-01) (2, -2.05949306488037109375e-01) (3, -8.39539170265197753906e-02) (4, -5.06998836994171142578e-01) (5, -2.68578231334686279297e-01) (6, -9.00441408157348632812e-02) (7, -1.37008652091026306152e-02) (8, -3.20677310228347778320e-02) (9, -3.42877000570297241211e-01) (10, -2.95426696538925170898e-01) (11, -3.52410465478897094727e-01) (12, -3.28783065080642700195e-01) (13, -1.71489000320434570312e-01) (14, 5.76386414468288421631e-02) (15, 1.47177293896675109863e-01) (16, -2.45789751410484313965e-01) (17, -3.64509403705596923828e-01) (18, -2.11038455367088317871e-01) (19, -4.97858971357345581055e-01) (20, -3.86243581771850585938e-01) (21, -4.30319398641586303711e-01) (22, -3.10750812292098999023e-01) (23, -4.31680321693420410156e-01) (24, -2.72298097610473632812e-01) (25, -3.18593800067901611328e-01) (26, -4.17542874813079833984e-01) (27, -4.74798798561096191406e-01) (28, -3.76411169767379760742e-01) (29, -3.39722871780395507812e-01) (30, -4.62590157985687255859e-01) (31, -5.45088410377502441406e-01) (32, 8.72820466756820678711e-02) (33, -3.80604684352874755859e-01) (34, -4.53949034214019775391e-01) (35, -6.79701030254364013672e-01) (36, -5.75939059257507324219e-01) (37, -4.57397520542144775391e-01) (38, -4.41149711608886718750e-01) (39, -1.16542086470872163773e-03) (40, 2.04157933592796325684e-01) (41, -2.39664986729621887207e-01) (42, -8.06976258754730224609e-02) (43, -9.09139633178710937500e-01) (44, -6.21932983398437500000e-01) (45, -3.96712005138397216797e-01) (46, 3.58968861401081085205e-02) (47, -1.12203277647495269775e-01) (48, -8.74832928180694580078e-01) (0, -3.17699939012527465820e-01) (1, -2.08228379487991333008e-01) (2, 1.60234510898590087891e-01) (3, -1.64078146219253540039e-01) (4, 2.49301403760910034180e-01) (5, 3.12015265226364135742e-02) (6, -2.93350070714950561523e-01) (7, -7.26543590426445007324e-02) (8, -4.65415447950363159180e-01) (9, 5.73216021060943603516e-01) (10, 5.49013376235961914062e-01) (11, 7.98372477293014526367e-02) (12, -2.76282608509063720703e-01) (13, -3.25990021228790283203e-01) (14, -5.14372229576110839844e-01) (15, -4.29693728685379028320e-01) (16, 5.01194775104522705078e-01) (17, 6.57335221767425537109e-01) (18, 3.98626446723937988281e-01) (19, 3.82549881935119628906e-01) (20, 3.45466554164886474609e-01) (21, 1.94812104105949401855e-01) (22, 4.77772355079650878906e-01) (23, 3.36144685745239257812e-01) (24, 7.79336571693420410156e-01) (25, 4.47082191705703735352e-01) (26, 2.78705626726150512695e-01) (27, 1.79605305194854736328e-01) (28, -2.28434786200523376465e-01) (29, 3.98568272590637207031e-01) (30, 4.32687520980834960938e-01) (31, 7.36973106861114501953e-01) (32, 3.46366427838802337646e-02) (33, 1.04091274738311767578e+00) (34, 7.64212071895599365234e-01) (35, 4.40093845129013061523e-01) (36, 6.79174885153770446777e-02) (37, 4.25668478012084960938e-01) (38, 3.21604073047637939453e-01) (39, -1.33514329791069030762e-01) (40, -7.08644017577171325684e-02) (41, 4.50509995222091674805e-01) (42, 1.61199748516082763672e-01) (43, 6.84849798679351806641e-01) (44, 1.07212118804454803467e-01) (45, 5.91850429773330688477e-02) (46, -3.16902786493301391602e-01) (47, -2.38830327987670898438e-01) (48, -1.25834751129150390625e+00) (0, -1.68451011180877685547e-01) (1, -1.72899305820465087891e-01) (2, -7.79834166169166564941e-02) (3, -1.85232773423194885254e-01) (4, -2.24909558892250061035e-01) (5, -6.83018267154693603516e-02) (6, -4.57514226436614990234e-02) (7, 1.35610140860080718994e-02) (8, -9.71148833632469177246e-02) (9, -6.19939863681793212891e-02) (10, 1.64513778872787952423e-03) (11, -5.15634864568710327148e-02) (12, -2.51683026552200317383e-01) (13, -6.38835877180099487305e-02) (14, -5.19573912024497985840e-02) (15, 1.08528025448322296143e-02) (16, -5.19484505057334899902e-02) (17, -1.89193859696388244629e-01) (18, -1.53084799647331237793e-01) (19, -2.10301086306571960449e-01) (20, -2.67331719398498535156e-01) (21, -2.13398158550262451172e-01) (22, -2.17370167374610900879e-01) (23, -2.96342462301254272461e-01) (24, -1.35921195149421691895e-01) (25, -2.28326633572578430176e-01) (26, -1.78060218691825866699e-01) (27, -3.42462897300720214844e-01) (28, -2.86367118358612060547e-01) (29, -1.41349270939826965332e-01) (30, -2.17620909214019775391e-01) (31, -1.79179161787033081055e-01) (32, 8.24646726250648498535e-02) (33, -1.14248573780059814453e-01) (34, -1.51865497231483459473e-01) (35, -3.26802402734756469727e-01) (36, -2.53676831722259521484e-01) (37, -1.36175975203514099121e-01) (38, -1.66661456227302551270e-01) (39, 1.19952030945569276810e-03) (40, 3.93566861748695373535e-02) (41, -1.44515573978424072266e-01) (42, -5.34340403974056243896e-02) (43, -4.62289959192276000977e-01) (44, -4.03519243001937866211e-01) (45, -1.67840093374252319336e-01) (46, -5.00004924833774566650e-02) (47, -1.74638167023658752441e-01) (48, -1.44944024085998535156e+00) (0, -1.34462445974349975586e-01) (1, -2.03535318374633789062e-01) (2, -5.69338202476501464844e-02) (3, -8.42461436986923217773e-02) (4, -2.81156927347183227539e-01) (5, -4.86826926469802856445e-01) (6, -2.06941023468971252441e-01) (7, -9.04602110385894775391e-02) (8, 1.26463219523429870605e-01) (9, -6.48196876049041748047e-01) (10, -4.79610860347747802734e-02) (11, -2.57083445787429809570e-01) (12, -3.60248178243637084961e-01) (13, -1.73383563756942749023e-01) (14, 6.84313848614692687988e-02) (15, -1.20724566280841827393e-01) (16, -3.71724188327789306641e-01) (17, -8.08037698268890380859e-01) (18, -1.70313492417335510254e-01) (19, -3.74818056821823120117e-01) (20, -2.29245781898498535156e-01) (21, -3.55420261621475219727e-01) (22, -3.05633753538131713867e-01) (23, 5.89342266321182250977e-02) (24, -5.67873656749725341797e-01) (25, -6.46062076091766357422e-01) (26, -6.74436450004577636719e-01) (27, -3.89880806207656860352e-01) (28, -3.69310110807418823242e-01) (29, -4.79727566242218017578e-01) (30, -2.64376938343048095703e-01) (31, 9.93180349469184875488e-02) (32, -2.95415967702865600586e-01) (33, -7.37115442752838134766e-01) (34, -6.63731336593627929688e-01) (35, -6.84561908245086669922e-01) (36, -3.30168724060058593750e-01) (37, -1.92270278930664062500e-01) (38, -1.10193833708763122559e-01) (39, -1.12329714000225067139e-01) (40, 4.37182039022445678711e-02) (41, -4.72158879041671752930e-01) (42, -1.14815264940261840820e-01) (43, -9.21286344528198242188e-01) (44, -4.66296464204788208008e-01) (45, -1.64594531059265136719e-01) (46, 9.78296324610710144043e-02) (47, 1.97143554687500000000e-01) (48, -1.10931754112243652344e+00) (0, 2.76689883321523666382e-02) (1, -1.01410306990146636963e-01) (2, -5.11343851685523986816e-02) (3, 2.38389018923044204712e-02) (4, -1.52227044105529785156e-01) (5, -5.44434133917093276978e-03) (6, -6.43974915146827697754e-02) (7, -3.18785905838012695312e-02) (8, 1.51649657636880874634e-02) (9, -3.49597483873367309570e-01) (10, -2.93766766786575317383e-01) (11, -1.91078573465347290039e-01) (12, 1.46948665380477905273e-01) (13, -2.55695288069546222687e-03) (14, 1.00868508219718933105e-01) (15, -1.28598839044570922852e-01) (16, -1.33488118648529052734e-01) (17, -3.87201905250549316406e-01) (18, -2.99123525619506835938e-01) (19, -2.86154925823211669922e-01) (20, -2.84720748662948608398e-01) (21, -1.62792250514030456543e-01) (22, -1.99500262737274169922e-01) (23, 1.33253529667854309082e-01) (24, -2.56912440061569213867e-01) (25, -3.02041143178939819336e-01) (26, -2.53315776586532592773e-01) (27, -4.33847904205322265625e-01) (28, -2.59160727262496948242e-01) (29, -3.80064576864242553711e-01) (30, -5.83824282512068748474e-03) (31, -9.15059298276901245117e-02) (32, -8.16204026341438293457e-02) (33, -4.90351527929306030273e-01) (34, -3.26485931873321533203e-01) (35, -4.81755644083023071289e-01) (36, -4.07918214797973632812e-01) (37, -1.16639353334903717041e-01) (38, -3.58844816684722900391e-01) (39, -8.72538387775421142578e-02) (40, -5.57866990566253662109e-02) (41, -2.08274513483047485352e-01) (42, -2.38305076956748962402e-01) (43, -4.29402589797973632812e-01) (44, -3.51918041706085205078e-01) (45, -2.45840251445770263672e-01) (46, -3.70414741337299346924e-02) (47, -3.65555360913276672363e-02) (48, -1.49789202213287353516e+00) (0, -2.43628978729248046875e-01) (1, -8.61817449331283569336e-02) (2, -1.18623590096831321716e-02) (3, -9.68750491738319396973e-02) (4, -1.45818591117858886719e-01) (5, -7.28537663817405700684e-02) (6, -1.59107878804206848145e-01) (7, -1.31261888891458511353e-02) (8, -2.23309430293738842010e-03) (9, -3.81158590316772460938e-02) (10, 9.29100215435028076172e-02) (11, -1.04691617190837860107e-01) (12, -3.80205839872360229492e-01) (13, -1.57806470990180969238e-01) (14, -1.23062193393707275391e-01) (15, 4.63570281863212585449e-02) (16, 5.94536541029810905457e-03) (17, -3.00693996250629425049e-02) (18, -1.86052352190017700195e-01) (19, -1.31096974015235900879e-01) (20, -2.36288085579872131348e-01) (21, -1.23695306479930877686e-01) (22, -9.74409878253936767578e-02) (23, -2.33412876725196838379e-01) (24, 6.36329874396324157715e-02) (25, -6.46668672561645507812e-02) (26, -1.37488067150115966797e-01) (27, -3.11648249626159667969e-01) (28, -3.08281570672988891602e-01) (29, -1.12662881612777709961e-01) (30, -3.09497684240341186523e-01) (31, -2.03077360987663269043e-01) (32, 1.00330356508493423462e-02) (33, -1.42347011715173721313e-02) (34, -2.10519075393676757812e-01) (35, -2.93969005346298217773e-01) (36, -3.18507611751556396484e-01) (37, -2.66500204801559448242e-01) (38, -1.09742350876331329346e-01) (39, -1.63986310362815856934e-01) (40, 1.66141241788864135742e-02) (41, -5.57926297187805175781e-02) (42, -1.52199655771255493164e-01) (43, -2.72309362888336181641e-01) (44, -3.48278254270553588867e-01) (45, -1.83665663003921508789e-01) (46, -2.29015663266181945801e-01) (47, -2.25334450602531433105e-01) (48, -1.53079032897949218750e+00) (0, 9.87691879272460937500e-02) (1, 1.07573345303535461426e-01) (2, 1.81921377778053283691e-01) (3, 7.51941323280334472656e-01) (4, 1.07687540352344512939e-01) (5, 1.76488324999809265137e-01) (6, -2.60397315025329589844e-01) (7, -7.26274773478507995605e-02) (8, -3.52369934320449829102e-01) (9, -4.75053727626800537109e-01) (10, -5.86278319358825683594e-01) (11, -4.90138024091720581055e-01) (12, 8.43987047672271728516e-01) (13, 6.31821930408477783203e-01) (14, 3.48922610282897949219e-01) (15, -5.22474825382232666016e-01) (16, 6.24232813715934753418e-02) (17, -7.20567464828491210938e-01) (18, -2.30923593044281005859e-01) (19, -8.01487624645233154297e-01) (20, -6.79433226585388183594e-01) (21, 2.30219587683677673340e-01) (22, 4.18011456727981567383e-01) (23, 9.67039883136749267578e-01) (24, -2.57132291793823242188e-01) (25, -3.18719774484634399414e-01) (26, -4.29808408021926879883e-01) (27, -7.18033134937286376953e-01) (28, -5.08200883865356445312e-01) (29, -4.93921369314193725586e-01) (30, 5.31492292881011962891e-01) (31, 4.53586906194686889648e-01) (32, -1.47652208805084228516e-01) (33, -4.67530936002731323242e-01) (34, -8.68244245648384094238e-02) (35, -3.95916908979415893555e-01) (36, -1.10644328594207763672e+00) (37, -4.33213979005813598633e-01) (38, -5.21117329597473144531e-01) (39, 4.86265160143375396729e-02) (40, -1.57011881470680236816e-01) (41, -8.72400328516960144043e-02) (42, -1.06171630322933197021e-01) (43, -2.09262982010841369629e-01) (44, -5.20369470119476318359e-01) (45, -7.99314618110656738281e-01) (46, -1.93185314536094665527e-01) (47, -5.83334505558013916016e-01) (48, -1.87113118171691894531e+00) (0, -1.31049245595932006836e-01) (1, -5.03029264509677886963e-02) (2, 4.28658686578273773193e-02) (3, -5.32623715698719024658e-02) (4, -1.63829937577247619629e-01) (5, -1.13503374159336090088e-01) (6, -2.36107096076011657715e-01) (7, -1.16338916122913360596e-01) (8, 2.71171256899833679199e-02) (9, 4.15025763213634490967e-02) (10, 2.85222977399826049805e-02) (11, -5.87908104062080383301e-02) (12, -2.28195786476135253906e-01) (13, -4.01889652013778686523e-01) (14, -2.32063651084899902344e-01) (15, 1.59354165196418762207e-01) (16, 9.93682518601417541504e-02) (17, 3.02559971809387207031e-01) (18, -1.81401297450065612793e-01) (19, -1.22298151254653930664e-01) (20, -1.31317600607872009277e-01) (21, -2.07559779286384582520e-01) (22, 6.30336999893188476562e-02) (23, -2.13442236185073852539e-01) (24, 2.10377961397171020508e-01) (25, -1.21717602014541625977e-01) (26, 3.18750105798244476318e-02) (27, -1.57675892114639282227e-01) (28, -3.53985100984573364258e-01) (29, -3.62094074487686157227e-01) (30, -1.97880655527114868164e-01) (31, -1.03243388235569000244e-01) (32, -2.17516198754310607910e-02) (33, -2.97357048839330673218e-02) (34, -4.33237142860889434814e-02) (35, -2.35747560858726501465e-01) (36, -2.58505523204803466797e-01) (37, -2.73424625396728515625e-01) (38, -9.48582366108894348145e-02) (39, -1.24442219734191894531e-01) (40, -1.12975388765335083008e-01) (41, -4.65152263641357421875e-02) (42, -1.67806357145309448242e-01) (43, -2.04787641763687133789e-01) (44, -1.58617720007896423340e-01) (45, -2.89175033569335937500e-01) (46, -1.36591866612434387207e-01) (47, -1.41111373901367187500e-01) (48, -1.63866281509399414062e+00) (0, -1.22818194329738616943e-01) (1, -3.34201790392398834229e-02) (2, -9.39095467329025268555e-02) (3, -1.54005989432334899902e-01) (4, -8.59456658363342285156e-02) (5, -7.28766694664955139160e-02) (6, -1.49987414479255676270e-01) (7, 2.21244767308235168457e-02) (8, -2.81657606363296508789e-01) (9, -2.29643508791923522949e-02) (10, 4.59320954978466033936e-02) (11, -4.67950217425823211670e-02) (12, -3.66024315357208251953e-01) (13, -2.32129827141761779785e-01) (14, -2.19090625643730163574e-01) (15, 2.38694660365581512451e-02) (16, -1.39299824833869934082e-01) (17, -4.55235876142978668213e-02) (18, -7.34401270747184753418e-02) (19, -1.64941281080245971680e-01) (20, -1.04053273797035217285e-01) (21, -2.23582088947296142578e-02) (22, 1.25049874186515808105e-01) (23, 3.64057198166847229004e-02) (24, -1.33394971489906311035e-01) (25, -4.06948700547218322754e-02) (26, -3.68912816047668457031e-02) (27, -1.61523714661598205566e-01) (28, -2.87980556488037109375e-01) (29, -7.05857388675212860107e-03) (30, -7.37577602267265319824e-02) (31, 7.04247280955314636230e-02) (32, 7.41197541356086730957e-02) (33, 6.09618723392486572266e-02) (34, -5.16862273216247558594e-02) (35, -1.69784098863601684570e-01) (36, -9.92158725857734680176e-02) (37, -6.20609931647777557373e-02) (38, 9.64870378375053405762e-02) (39, -9.72334519028663635254e-02) (40, 1.03600677102804183960e-02) (41, 2.07701530307531356812e-02) (42, 5.73185598477721214294e-03) (43, -1.43655806779861450195e-01) (44, -9.85013768076896667480e-02) (45, -2.44023967534303665161e-02) (46, -8.97367522120475769043e-02) (47, -2.82262325286865234375e-01) (48, -1.61305379867553710938e+00) (0, 1.49909541010856628418e-01) (1, -1.58163025975227355957e-01) (2, -1.87807545065879821777e-01) (3, -2.42321230471134185791e-02) (4, -3.98977279663085937500e-01) (5, -1.38853669166564941406e-01) (6, -2.59846568107604980469e-01) (7, -1.00033074617385864258e-01) (8, 2.63722334057092666626e-02) (9, -3.04067075252532958984e-01) (10, -3.71014624834060668945e-01) (11, -2.56051033735275268555e-01) (12, -1.33853167295455932617e-01) (13, 2.50522177666425704956e-02) (14, -9.56922397017478942871e-03) (15, -1.85337141156196594238e-01) (16, -2.22366496920585632324e-01) (17, -4.43380057811737060547e-01) (18, -2.91031867265701293945e-01) (19, -3.54129970073699951172e-01) (20, -4.17630702257156372070e-01) (21, -3.73590379953384399414e-01) (22, -1.69966101646423339844e-01) (23, -2.96862989664077758789e-01) (24, -2.35493198037147521973e-01) (25, -3.65937083959579467773e-01) (26, -4.76384758949279785156e-01) (27, -5.84657430648803710938e-01) (28, -2.78226375579833984375e-01) (29, -4.54104691743850708008e-01) (30, -2.98891991376876831055e-01) (31, -5.11218130588531494141e-01) (32, -1.03004060685634613037e-01) (33, -4.15090709924697875977e-01) (34, -3.72871845960617065430e-01) (35, -6.37430846691131591797e-01) (36, -5.45314729213714599609e-01) (37, -2.36804112792015075684e-01) (38, -3.42177838087081909180e-01) (39, -5.44987134635448455811e-02) (40, -4.40982468426227569580e-02) (41, -2.46501699090003967285e-01) (42, -8.49125161767005920410e-02) (43, -7.24182009696960449219e-01) (44, -5.10116517543792724609e-01) (45, -4.24451649188995361328e-01) (46, -1.67144998908042907715e-01) (47, 8.76209065318107604980e-02) (48, -1.05793619155883789062e+00) (0, 1.04993619024753570557e-01) (1, -1.48782625794410705566e-01) (2, -1.82263702154159545898e-01) (3, -1.64307758212089538574e-01) (4, -3.24221849441528320312e-01) (5, -1.87732279300689697266e-01) (6, -1.77829504013061523438e-01) (7, -4.43863496184349060059e-02) (8, -1.63224339485168457031e-02) (9, -4.35585439205169677734e-01) (10, -3.13085049390792846680e-01) (11, -2.27992728352546691895e-01) (12, -7.94131010770797729492e-02) (13, -7.69997611641883850098e-02) (14, 3.48018705844879150391e-02) (15, -2.82715205103158950806e-02) (16, -2.26129963994026184082e-01) (17, -4.81047868728637695312e-01) (18, -3.67012381553649902344e-01) (19, -4.19496685266494750977e-01) (20, -4.01390999555587768555e-01) (21, -2.53176957368850708008e-01) (22, -1.79738417267799377441e-01) (23, -1.79623469710350036621e-01) (24, -2.08910420536994934082e-01) (25, -3.50680500268936157227e-01) (26, -3.98471534252166748047e-01) (27, -4.34866786003112792969e-01) (28, -2.68324226140975952148e-01) (29, -4.65035855770111083984e-01) (30, -3.11599165201187133789e-01) (31, -3.23311388492584228516e-01) (32, -9.74126439541578292847e-03) (33, -5.48032283782958984375e-01) (34, -3.75117391347885131836e-01) (35, -7.34245777130126953125e-01) (36, -5.22976458072662353516e-01) (37, -4.15456354618072509766e-01) (38, -4.55849468708038330078e-01) (39, -6.30336776375770568848e-02) (40, 3.90369025990366935730e-03) (41, -2.19497442245483398438e-01) (42, -1.02412566542625427246e-01) (43, -6.19244396686553955078e-01) (44, -5.93363404273986816406e-01) (45, -2.19370037317276000977e-01) (46, -1.28420218825340270996e-01) (47, -1.31490975618362426758e-02) (48, -1.13745296001434326172e+00) (0, 3.21169346570968627930e-02) (1, -1.95979431271553039551e-01) (2, -7.17060640454292297363e-02) (3, -9.14826542139053344727e-02) (4, -4.80720885097980499268e-02) (5, -3.50949615240097045898e-02) (6, -1.10995441675186157227e-01) (7, -8.79659801721572875977e-02) (8, 8.47688615322113037109e-02) (9, -2.36676588654518127441e-01) (10, -9.31804180145263671875e-02) (11, -2.07843095064163208008e-01) (12, -2.14145287871360778809e-01) (13, 1.33877657353878021240e-02) (14, -1.56372249126434326172e-01) (15, -2.04777523875236511230e-01) (16, 7.45107904076576232910e-02) (17, -1.89123734831809997559e-01) (18, 6.67117163538932800293e-02) (19, -5.97301162779331207275e-02) (20, -8.81468877196311950684e-02) (21, -1.79402425885200500488e-01) (22, -2.05562397837638854980e-01) (23, -4.13983650505542755127e-02) (24, 5.11120110750198364258e-02) (25, -1.46887660026550292969e-01) (26, -9.40360575914382934570e-02) (27, -9.99272335320711135864e-03) (28, -8.78397971391677856445e-02) (29, 2.77337525039911270142e-02) (30, -3.05311903357505798340e-02) (31, 9.03615802526473999023e-02) (32, 9.45632979273796081543e-02) (33, -5.61689361929893493652e-02) (34, -7.54008591175079345703e-02) (35, 2.30214148759841918945e-02) (36, -2.11674999445676803589e-02) (37, 1.45519326906651258469e-03) (38, -5.03835119307041168213e-02) (39, 3.75033095479011535645e-02) (40, 4.52074548229575157166e-03) (41, -6.54638558626174926758e-02) (42, -1.52158915996551513672e-01) (43, 2.49763932079076766968e-02) (44, -1.83972045779228210449e-01) (45, -1.39339134097099304199e-01) (46, -1.52838319540023803711e-01) (47, -8.11444148421287536621e-02) (48, -1.61379349231719970703e+00) (0, -1.36158093810081481934e-01) (1, -2.60715276002883911133e-01) (2, -8.04326534271240234375e-01) (3, -5.28395414352416992188e-01) (4, -6.66855335235595703125e-01) (5, -7.64705389738082885742e-02) (6, -2.87294566631317138672e-01) (7, -2.16177374124526977539e-01) (8, -9.02619808912277221680e-02) (9, -2.24472731351852416992e-01) (10, -2.77183175086975097656e-01) (11, -5.55501937866210937500e-01) (12, -6.61419093608856201172e-01) (13, -2.78725117444992065430e-01) (14, -2.96491026878356933594e-01) (15, -3.15417461097240447998e-02) (16, 8.82524102926254272461e-02) (17, -2.91751056909561157227e-01) (18, -9.79072526097297668457e-02) (19, -9.02578294277191162109e-01) (20, -8.26960980892181396484e-01) (21, -5.64540684223175048828e-01) (22, -4.88861203193664550781e-01) (23, -6.06883585453033447266e-01) (24, 4.67331111431121826172e-01) (25, -7.37591236829757690430e-02) (26, 2.46254533529281616211e-01) (27, -4.98327106237411499023e-01) (28, -3.65529865026473999023e-01) (29, -4.33121711015701293945e-01) (30, -5.66807329654693603516e-01) (31, -1.17596614360809326172e+00) (32, 5.24968802928924560547e-02) (33, -2.31185361742973327637e-01) (34, 5.87408058345317840576e-02) (35, -1.45882740616798400879e-01) (36, -8.71177077293395996094e-01) (37, -3.38962823152542114258e-01) (38, -5.61249017715454101562e-01) (39, -2.82792240381240844727e-01) (40, -2.89602577686309814453e-01) (41, -2.15095520019531250000e-01) (42, 5.62109760940074920654e-02) (43, -9.41556245088577270508e-02) (44, -8.10949027538299560547e-01) (45, -1.22462585568428039551e-01) (46, -6.38158321380615234375e-02) (47, -2.47855763882398605347e-02) (48, -1.04748344421386718750e+00) (0, 6.97331577539443969727e-02) (1, -2.98424083739519119263e-02) (2, 4.03641536831855773926e-02) (3, 3.11339553445577621460e-02) (4, -1.59342736005783081055e-01) (5, 3.70805449783802032471e-02) (6, -1.23108692467212677002e-01) (7, 5.97203755751252174377e-03) (8, 1.08662992715835571289e-01) (9, -1.13603346049785614014e-01) (10, -3.54141928255558013916e-02) (11, -1.48774847388267517090e-01) (12, -1.62015199661254882812e-01) (13, -1.26454206183552742004e-02) (14, 6.34282380342483520508e-02) (15, -2.57136434316635131836e-01) (16, -4.18658293783664703369e-02) (17, -2.92992085218429565430e-01) (18, 6.32479414343833923340e-02) (19, -1.68765544891357421875e-01) (20, -3.53532940149307250977e-01) (21, -2.83318966627120971680e-01) (22, -1.95739224553108215332e-01) (23, 3.11619162559509277344e-01) (24, -1.72145992517471313477e-01) (25, -1.29029020667076110840e-01) (26, -2.01038848608732223511e-02) (27, -3.61063145101070404053e-02) (28, -1.85691297054290771484e-01) (29, 8.74755829572677612305e-02) (30, 1.17843218147754669189e-01) (31, 2.40350395441055297852e-01) (32, 1.25870546326041221619e-02) (33, -1.23412407934665679932e-01) (34, 5.84863591939210891724e-03) (35, -2.39956695586442947388e-02) (36, -1.70402437448501586914e-01) (37, -7.91298691183328628540e-03) (38, 1.50223508477210998535e-01) (39, -1.68467983603477478027e-02) (40, -7.87889882922172546387e-02) (41, -5.69027550518512725830e-02) (42, -1.22025460004806518555e-01) (43, -4.24134954810142517090e-02) (44, -8.82079154253005981445e-02) (45, -5.37889599800109863281e-02) (46, -1.08408823609352111816e-01) (47, 1.40481978654861450195e-01) (48, -1.70695590972900390625e+00) (0, -1.48361921310424804688e-01) (1, -1.48087441921234130859e-01) (2, -7.28010609745979309082e-02) (3, -2.07528620958328247070e-01) (4, -4.66171443462371826172e-01) (5, -4.32778596878051757812e-02) (6, -3.95877808332443237305e-02) (7, -3.80658432841300964355e-02) (8, -1.64818987250328063965e-01) (9, -3.18494498729705810547e-01) (10, -2.48372212052345275879e-01) (11, -1.33277162909507751465e-01) (12, -3.61822605133056640625e-01) (13, -1.10445648431777954102e-01) (14, 6.55812863260507583618e-03) (15, 1.59914001822471618652e-01) (16, -2.02282741665840148926e-01) (17, -1.45368650555610656738e-01) (18, -2.06129401922225952148e-01) (19, -3.16649168729782104492e-01) (20, -2.98489242792129516602e-01) (21, -2.79375493526458740234e-01) (22, -3.29540133476257324219e-01) (23, -4.54051762819290161133e-01) (24, -3.17740105092525482178e-02) (25, -2.32660412788391113281e-01) (26, -2.51613229513168334961e-01) (27, -3.83021622896194458008e-01) (28, -4.86569076776504516602e-01) (29, -2.95228570699691772461e-01) (30, -4.91899609565734863281e-01) (31, -4.01380777359008789062e-01) (32, 8.80569368600845336914e-02) (33, -4.02273982763290405273e-01) (34, -2.74348139762878417969e-01) (35, -5.71083903312683105469e-01) (36, -5.79533994197845458984e-01) (37, -3.65114390850067138672e-01) (38, -3.45732152462005615234e-01) (39, -1.37125715613365173340e-01) (40, 1.77270233631134033203e-01) (41, -1.28309503197669982910e-01) (42, -2.14893296360969543457e-01) (43, -6.84070587158203125000e-01) (44, -4.51511174440383911133e-01) (45, -2.35525280237197875977e-01) (46, -2.25256662815809249878e-02) (47, -7.96281024813652038574e-02) (48, -1.14797008037567138672e+00) (0, -1.37961417436599731445e-01) (1, -1.26300171017646789551e-01) (2, -1.21485076844692230225e-01) (3, -2.12547868490219116211e-01) (4, -3.03505152463912963867e-01) (5, -8.86446982622146606445e-02) (6, -1.56006515026092529297e-01) (7, 3.59898395836353302002e-02) (8, -4.84445244073867797852e-02) (9, -1.43612712621688842773e-01) (10, -1.89684927463531494141e-01) (11, -1.49535864591598510742e-01) (12, -2.75916248559951782227e-01) (13, -1.33920311927795410156e-01) (14, -7.81689584255218505859e-02) (15, 1.52765363454818725586e-01) (16, -1.25042572617530822754e-01) (17, -4.44003231823444366455e-02) (18, -7.50666186213493347168e-02) (19, -3.16662758588790893555e-01) (20, -2.83684968948364257812e-01) (21, -1.89404010772705078125e-01) (22, -9.60882529616355895996e-02) (23, -2.07308053970336914062e-01) (24, 2.91734337806701660156e-02) (25, -1.96413740515708923340e-01) (26, -1.76045402884483337402e-01) (27, -2.60246336460113525391e-01) (28, -3.80279034376144409180e-01) (29, -2.72504776716232299805e-01) (30, -3.57196569442749023438e-01) (31, -2.84549593925476074219e-01) (32, 1.38192400336265563965e-01) (33, -1.68832555413246154785e-01) (34, -1.96748554706573486328e-01) (35, -4.28228974342346191406e-01) (36, -3.66430640220642089844e-01) (37, -1.84037208557128906250e-01) (38, -2.77157753705978393555e-01) (39, -1.44129648804664611816e-01) (40, 3.58043946325778961182e-02) (41, -2.01351284980773925781e-01) (42, -1.25455945730209350586e-01) (43, -5.27161061763763427734e-01) (44, -3.72416406869888305664e-01) (45, -2.68960654735565185547e-01) (46, -1.92855820059776306152e-01) (47, -1.22775264084339141846e-01) (48, -1.40925335884094238281e+00) (0, 6.52168467640876770020e-02) (1, 6.43990933895111083984e-02) (2, 1.44451126456260681152e-01) (3, -1.08950518071651458740e-01) (4, 2.09339171648025512695e-01) (5, 5.41236288845539093018e-02) (6, -1.68712586164474487305e-01) (7, -1.19860552251338958740e-01) (8, -1.53249040246009826660e-01) (9, 4.36798393726348876953e-01) (10, 4.64962720870971679688e-01) (11, 1.17448829114437103271e-01) (12, -2.35190436244010925293e-01) (13, -3.49807709455490112305e-01) (14, -4.31571543216705322266e-01) (15, -5.23073017597198486328e-01) (16, 5.12583196163177490234e-01) (17, 6.47029221057891845703e-01) (18, 3.26537251472473144531e-01) (19, 2.29702249169349670410e-01) (20, 6.00214675068855285645e-02) (21, 1.03683613240718841553e-01) (22, 3.01339089870452880859e-01) (23, 6.75880849361419677734e-01) (24, 5.49479663372039794922e-01) (25, 5.09524703025817871094e-01) (26, 7.33198761940002441406e-01) (27, 2.56644487380981445312e-01) (28, 6.38711974024772644043e-02) (29, 3.49982261657714843750e-01) (30, 8.94322514533996582031e-01) (31, 9.55562233924865722656e-01) (32, -1.24724596738815307617e-01) (33, 8.46548557281494140625e-01) (34, 9.12806093692779541016e-01) (35, 6.53842449188232421875e-01) (36, 1.41153216361999511719e-01) (37, 5.04523873329162597656e-01) (38, 4.80723887681961059570e-01) (39, 8.03913474082946777344e-02) (40, -1.92738592624664306641e-01) (41, 3.42898637056350708008e-01) (42, -7.60129466652870178223e-02) (43, 1.05909085273742675781e+00) (44, 4.33056145906448364258e-01) (45, 2.86939859390258789062e-01) (46, 9.59256589412689208984e-02) (47, 1.08831152319908142090e-02) (48, -1.23815989494323730469e+00) (0, -1.29553647711873054504e-02) (1, -1.51296213269233703613e-01) (2, 1.77304595708847045898e-02) (3, -1.23233042657375335693e-01) (4, -1.86754018068313598633e-02) (5, 9.02377814054489135742e-02) (6, -9.56260561943054199219e-02) (7, 4.83677210286259651184e-03) (8, -8.84203240275382995605e-02) (9, -1.07757180929183959961e-01) (10, -8.00612010061740875244e-03) (11, -7.52156153321266174316e-02) (12, -2.65162467956542968750e-01) (13, -1.80605754256248474121e-01) (14, -1.61854311823844909668e-01) (15, -3.96948158740997314453e-02) (16, -1.82081013917922973633e-02) (17, -1.39786839485168457031e-01) (18, 8.14140215516090393066e-02) (19, -1.85115322470664978027e-01) (20, -3.93094159662723541260e-02) (21, -5.62835484743118286133e-02) (22, -2.30491682887077331543e-02) (23, 4.94542997330427169800e-03) (24, -8.83314386010169982910e-02) (25, -1.38903945684432983398e-01) (26, -6.88599944114685058594e-02) (27, -2.01055482029914855957e-02) (28, -7.54334330558776855469e-02) (29, -1.06067722663283348083e-02) (30, 9.71501842141151428223e-02) (31, 1.52413040399551391602e-01) (32, 6.24968484044075012207e-03) (33, 2.17186566442251205444e-02) (34, 7.79988840222358703613e-02) (35, 5.97363486886024475098e-02) (36, -3.12161967158317565918e-02) (37, -3.17068807780742645264e-02) (38, 1.25555107370018959045e-02) (39, -9.94037240743637084961e-02) (40, -1.66713912039995193481e-02) (41, 5.97519315779209136963e-02) (42, 7.98704177141189575195e-02) (43, 1.11814364790916442871e-01) (44, -3.26486043632030487061e-02) (45, -9.05438289046287536621e-02) (46, -5.09606935083866119385e-02) (47, -7.38028585910797119141e-02) (48, -1.67870783805847167969e+00) (0, -4.48582433164119720459e-02) (1, -4.35383431613445281982e-03) (2, 1.45128652453422546387e-01) (3, -6.26442506909370422363e-02) (4, -1.19010180234909057617e-01) (5, -2.43720009922981262207e-01) (6, -2.97020614147186279297e-01) (7, -2.29199349880218505859e-01) (8, 1.18225552141666412354e-01) (9, 3.55776660144329071045e-02) (10, 1.30076602101325988770e-01) (11, 1.39306515455245971680e-01) (12, -1.11818931996822357178e-01) (13, -4.68910485506057739258e-01) (14, -1.67993426322937011719e-01) (15, -1.94650828838348388672e-01) (16, 2.46217876672744750977e-01) (17, 3.10214966535568237305e-01) (18, -2.56578624248504638672e-01) (19, 5.90350404381752014160e-02) (20, 1.37335285544395446777e-01) (21, 1.68647989630699157715e-01) (22, 2.49754384160041809082e-01) (23, 1.60519823431968688965e-01) (24, 1.80966362357139587402e-01) (25, -7.18108713626861572266e-02) (26, 1.05503834784030914307e-01) (27, -4.66301999986171722412e-02) (28, -6.95496574044227600098e-02) (29, -1.00972592830657958984e-01) (30, 1.78280353546142578125e-01) (31, 4.77510869503021240234e-01) (32, -3.07503134012222290039e-01) (33, 2.70077377557754516602e-01) (34, 1.74367666244506835938e-01) (35, -2.79366993345320224762e-03) (36, -7.39220827817916870117e-02) (37, -1.44575700163841247559e-01) (38, 1.14880129694938659668e-02) (39, -7.52082169055938720703e-02) (40, -3.77512931823730468750e-01) (41, 9.76069271564483642578e-03) (42, -2.96366065740585327148e-01) (43, -6.34642466902732849121e-02) (44, -3.26520539820194244385e-02) (45, -1.13263033330440521240e-01) (46, 3.82891041226685047150e-03) (47, -1.85115173459053039551e-01) (48, -1.60187363624572753906e+00) (0, -1.93578097969293594360e-02) (1, 9.46478694677352905273e-02) (2, 1.29983603954315185547e-01) (3, -2.15043306350708007812e-01) (4, 1.42833337187767028809e-01) (5, -2.29830797761678695679e-02) (6, -2.20344319939613342285e-01) (7, -5.61287328600883483887e-02) (8, -1.38095393776893615723e-01) (9, 3.55256229639053344727e-01) (10, 2.04063907265663146973e-01) (11, -2.91954558342695236206e-02) (12, -2.48724371194839477539e-01) (13, -2.64983773231506347656e-01) (14, -2.01658368110656738281e-01) (15, -4.58462893962860107422e-01) (16, 3.78471434116363525391e-01) (17, 3.86473417282104492188e-01) (18, 6.65570572018623352051e-02) (19, 2.13076934218406677246e-01) (20, -4.11979183554649353027e-02) (21, 8.14952552318572998047e-02) (22, 8.92515257000923156738e-02) (23, 4.65890407562255859375e-01) (24, 4.11381155252456665039e-01) (25, 2.81018704175949096680e-01) (26, 4.51731860637664794922e-01) (27, 9.15065035223960876465e-03) (28, -1.07521332800388336182e-01) (29, 3.53088408708572387695e-01) (30, 4.06696200370788574219e-01) (31, 6.78195118904113769531e-01) (32, -6.55800998210906982422e-02) (33, 5.60169458389282226562e-01) (34, 6.84638023376464843750e-01) (35, 3.46604436635971069336e-01) (36, 8.04553031921386718750e-02) (37, 2.93171525001525878906e-01) (38, 3.34394991397857666016e-01) (39, 7.60225653648376464844e-02) (40, -2.88083285093307495117e-01) (41, 1.05139918625354766846e-01) (42, -4.63274791836738586426e-02) (43, 6.53230726718902587891e-01) (44, 2.71418601274490356445e-01) (45, 2.34540939331054687500e-01) (46, 8.13208818435668945312e-02) (47, -2.12763305753469467163e-02) (48, -1.57116210460662841797e+00) (0, -2.78046041727066040039e-01) (1, -2.13583245873451232910e-01) (2, 3.66844907402992248535e-02) (3, -9.04408246278762817383e-02) (4, -1.84027791023254394531e-01) (5, -2.13415339589118957520e-01) (6, -4.92537021636962890625e-02) (7, 2.09760591387748718262e-01) (8, -1.84994921088218688965e-01) (9, -6.48045390844345092773e-02) (10, -1.93229352589696645737e-03) (11, 8.04913640022277832031e-02) (12, -4.18614089488983154297e-01) (13, -5.60371987521648406982e-02) (14, -1.29953801631927490234e-01) (15, 1.51842102408409118652e-01) (16, -1.99628457427024841309e-01) (17, -8.42677354812622070312e-02) (18, 1.32102668285369873047e-02) (19, 8.55779857374727725983e-04) (20, -8.80776047706604003906e-02) (21, 1.03859476745128631592e-01) (22, 8.30970704555511474609e-02) (23, -1.55272156000137329102e-01) (24, -1.12476810812950134277e-01) (25, -5.86876161396503448486e-02) (26, -2.18916475772857666016e-01) (27, -2.54944175481796264648e-01) (28, -2.51421809196472167969e-01) (29, -4.78422157466411590576e-02) (30, -2.70036250352859497070e-01) (31, -7.84750133752822875977e-02) (32, 1.02826319634914398193e-01) (33, -1.82065352797508239746e-01) (34, -1.29632905125617980957e-01) (35, 6.17093369364738464355e-02) (36, -2.09772959351539611816e-01) (37, -1.81896477937698364258e-01) (38, 7.17246085405349731445e-02) (39, -2.44944661855697631836e-01) (40, 1.16050250828266143799e-01) (41, 9.35422256588935852051e-02) (42, 1.77933573722839355469e-01) (43, -3.62400352954864501953e-01) (44, -2.33989775180816650391e-01) (45, -1.53276279568672180176e-01) (46, -1.61792248487472534180e-01) (47, -3.42500209808349609375e-01) (48, -1.62880253791809082031e+00) (0, -6.66905716061592102051e-02) (1, -1.47811055183410644531e-01) (2, -1.43022432923316955566e-01) (3, -7.67925828695297241211e-02) (4, -3.94389420747756958008e-01) (5, -1.96034759283065795898e-01) (6, -1.44053354859352111816e-01) (7, 1.15456022322177886963e-01) (8, -1.40866100788116455078e-01) (9, -2.33819946646690368652e-01) (10, -4.28280383348464965820e-02) (11, -7.82354623079299926758e-02) (12, -4.92386251688003540039e-01) (13, -9.51693207025527954102e-02) (14, -1.76127895712852478027e-01) (15, 9.69624593853950500488e-02) (16, -3.45566987991333007812e-01) (17, -1.89158692955970764160e-01) (18, -2.33481321483850479126e-02) (19, -2.51002609729766845703e-01) (20, -1.21301069855690002441e-01) (21, -1.60957902669906616211e-01) (22, -1.00014679133892059326e-01) (23, -2.91857242584228515625e-01) (24, -1.65336102247238159180e-01) (25, -4.25828620791435241699e-02) (26, -2.90455430746078491211e-01) (27, -3.56665790081024169922e-01) (28, -2.65405058860778808594e-01) (29, -3.00201743841171264648e-01) (30, -3.99172306060791015625e-01) (31, -2.48130336403846740723e-01) (32, 5.65368309617042541504e-02) (33, -2.29728832840919494629e-01) (34, -4.71698135137557983398e-01) (35, -4.11304891109466552734e-01) (36, -2.66086369752883911133e-01) (37, -2.75945127010345458984e-01) (38, -1.18581973016262054443e-01) (39, -9.95135083794593811035e-02) (40, 1.65842071175575256348e-01) (41, -1.70620173215866088867e-01) (42, 1.30861988291144371033e-02) (43, -7.51999437808990478516e-01) (44, -2.84958451986312866211e-01) (45, -3.39212775230407714844e-01) (46, -2.92037893086671829224e-02) (47, -2.16228768229484558105e-01) (48, -1.32518517971038818359e+00) (0, -7.58390650153160095215e-02) (1, -1.23028285801410675049e-01) (2, -1.64296120405197143555e-01) (3, -5.61788938939571380615e-02) (4, -1.93377643823623657227e-01) (5, 6.79285377264022827148e-02) (6, -8.40742513537406921387e-02) (7, 2.21786033362150192261e-02) (8, -6.65506869554519653320e-02) (9, -1.22870858758687973022e-02) (10, -3.93263027071952819824e-02) (11, -1.40666484832763671875e-01) (12, -1.99697345495223999023e-01) (13, -5.55342510342597961426e-02) (14, -1.88144408166408538818e-02) (15, -2.87458330392837524414e-01) (16, 1.19683615863323211670e-01) (17, -1.10338881611824035645e-01) (18, 4.12490256130695343018e-02) (19, -1.23585611581802368164e-01) (20, -1.32814839482307434082e-01) (21, -9.35980007052421569824e-02) (22, -5.91938346624374389648e-02) (23, 1.46538779139518737793e-01) (24, 5.86924739181995391846e-02) (25, -1.06666408479213714600e-01) (26, 9.29543152451515197754e-02) (27, 3.09551563113927841187e-02) (28, -1.51888921856880187988e-01) (29, 7.43367522954940795898e-02) (30, -1.77356116473674774170e-02) (31, 1.55138701200485229492e-01) (32, -4.69101890921592712402e-02) (33, -1.08035266399383544922e-01) (34, 1.47599861025810241699e-01) (35, -3.98788638412952423096e-02) (36, -5.71628995239734649658e-02) (37, 1.79729759693145751953e-02) (38, -1.14973327144980430603e-02) (39, -8.87224599719047546387e-02) (40, -5.01064099371433258057e-02) (41, 4.95871342718601226807e-02) (42, -1.24569628387689590454e-02) (43, 1.15207299590110778809e-01) (44, -7.74966478347778320312e-02) (45, -4.96617965400218963623e-02) (46, -1.58211499452590942383e-01) (47, -1.23256184160709381104e-02) (48, -1.62701237201690673828e+00) (0, 1.32467284798622131348e-01) (1, 6.30883453413844108582e-03) (2, 4.46225553750991821289e-02) (3, 1.88127741217613220215e-01) (4, -7.06648156046867370605e-02) (5, -2.05378383398056030273e-01) (6, -1.89264729619026184082e-01) (7, -1.06583438813686370850e-01) (8, 3.78764793276786804199e-02) (9, -4.24324929714202880859e-01) (10, -6.96876132860779762268e-03) (11, -2.97281444072723388672e-01) (12, -7.36643895506858825684e-02) (13, -9.43495407700538635254e-02) (14, 1.80293157696723937988e-01) (15, -3.52672934532165527344e-01) (16, -3.40234011411666870117e-01) (17, -5.83839714527130126953e-01) (18, -1.29783570766448974609e-01) (19, -3.48942160606384277344e-01) (20, -4.47013407945632934570e-01) (21, -1.86721161007881164551e-01) (22, -1.99849754571914672852e-01) (23, 3.00181686878204345703e-01) (24, -5.48177182674407958984e-01) (25, -4.57118272781372070312e-01) (26, -3.47409486770629882812e-01) (27, -4.43151205778121948242e-01) (28, -2.73320198059082031250e-01) (29, -4.00272309780120849609e-01) (30, 2.49644014984369277954e-02) (31, 1.95429369807243347168e-01) (32, -4.24658179283142089844e-01) (33, -7.04408645629882812500e-01) (34, -4.55899357795715332031e-01) (35, -3.75420928001403808594e-01) (36, -5.03779888153076171875e-01) (37, -9.54079329967498779297e-02) (38, -1.22892454266548156738e-01) (39, -1.29848364740610122681e-02) (40, -1.54473170638084411621e-01) (41, -3.47617417573928833008e-01) (42, -2.42430776357650756836e-01) (43, -5.78551173210144042969e-01) (44, -3.35257917642593383789e-01) (45, -2.43290409445762634277e-01) (46, -3.76356802880764007568e-02) (47, 1.96629628539085388184e-01) (48, -1.43823838233947753906e+00) (0, -2.06477984786033630371e-01) (1, -1.15841597318649291992e-01) (2, -1.03123364970088005066e-02) (3, -1.03602014482021331787e-01) (4, -2.36838087439537048340e-01) (5, -5.13573288917541503906e-02) (6, -8.13907291740179061890e-03) (7, -5.79650886356830596924e-02) (8, -1.68247312307357788086e-01) (9, -9.71155613660812377930e-02) (10, -9.09462422132492065430e-02) (11, -7.43798762559890747070e-02) (12, -3.77286136150360107422e-01) (13, -1.55957177281379699707e-01) (14, -1.46853134036064147949e-01) (15, 2.27827448397874832153e-02) (16, -9.18928310275077819824e-02) (17, -2.09505874663591384888e-02) (18, -5.52030690014362335205e-02) (19, -1.95941075682640075684e-01) (20, -1.83038458228111267090e-01) (21, -1.25253960490226745605e-01) (22, -5.74283413589000701904e-02) (23, -1.31198927760124206543e-01) (24, -2.39558424800634384155e-02) (25, -4.47692759335041046143e-02) (26, -1.41618430614471435547e-01) (27, -2.36269637942314147949e-01) (28, -2.42618232965469360352e-01) (29, -1.40296548604965209961e-01) (30, -2.87605613470077514648e-01) (31, -2.28919968008995056152e-01) (32, -2.38924939185380935669e-02) (33, -4.37113605439662933350e-02) (34, -9.64056849479675292969e-02) (35, -2.60531336069107055664e-01) (36, -2.28864327073097229004e-01) (37, -1.45082592964172363281e-01) (38, -6.70123174786567687988e-02) (39, -1.44630938768386840820e-01) (40, 1.48815130814909934998e-02) (41, -2.57337763905525207520e-02) (42, -1.14617891609668731689e-01) (43, -3.31740707159042358398e-01) (44, -3.62667202949523925781e-01) (45, -2.30874508619308471680e-01) (46, -9.02279019355773925781e-02) (47, -2.45972275733947753906e-01) (48, -1.51176023483276367188e+00) (0, -1.23234838247299194336e-01) (1, -8.89782533049583435059e-02) (2, -6.35560974478721618652e-02) (3, -1.12236827611923217773e-01) (4, 1.80860236287117004395e-01) (5, -4.00379709899425506592e-02) (6, -7.66369849443435668945e-02) (7, -1.23760998249053955078e-02) (8, -2.13787257671356201172e-01) (9, -3.31983789801597595215e-02) (10, 1.36456474661827087402e-01) (11, -2.96952407807111740112e-02) (12, -2.50268846750259399414e-01) (13, -1.09350427985191345215e-01) (14, -1.82187482714653015137e-01) (15, -2.88053572177886962891e-01) (16, 8.37091132998466491699e-02) (17, 1.74439683556556701660e-01) (18, 2.17510655522346496582e-01) (19, 9.06801074743270874023e-02) (20, 2.44036912918090820312e-02) (21, -5.08232824504375457764e-02) (22, 2.25296154618263244629e-01) (23, 2.89963722229003906250e-01) (24, 7.10858404636383056641e-02) (25, 6.20090663433074951172e-02) (26, 2.48780801892280578613e-01) (27, 1.43914148211479187012e-01) (28, -2.07943990826606750488e-01) (29, 2.49539569020271301270e-01) (30, 3.97353619337081909180e-01) (31, 4.36404973268508911133e-01) (32, -1.08215413987636566162e-01) (33, 3.92587870359420776367e-01) (34, 3.79505068063735961914e-01) (35, 1.84081435203552246094e-01) (36, -2.36698277294635772705e-02) (37, 1.90048053860664367676e-01) (38, 3.53842616081237792969e-01) (39, 1.36870909482240676880e-02) (40, -1.29428997635841369629e-01) (41, 2.38682433962821960449e-01) (42, -7.61632770299911499023e-02) (43, 4.00857776403427124023e-01) (44, 1.52286991477012634277e-01) (45, 1.26920431852340698242e-01) (46, -7.96780735254287719727e-02) (47, -1.54202446341514587402e-01) (48, -1.64756882190704345703e+00) (0, -1.25315085053443908691e-01) (1, -9.44468900561332702637e-02) (2, -2.39468812942504882812e-01) (3, -1.66050374507904052734e-01) (4, -3.09050768613815307617e-01) (5, -2.58572310209274291992e-01) (6, -5.55408596992492675781e-02) (7, 1.15231670439243316650e-01) (8, -2.47156068682670593262e-01) (9, -3.15375030040740966797e-01) (10, -1.09701804816722869873e-01) (11, -5.66906072199344635010e-02) (12, -6.24444365501403808594e-01) (13, -3.80296148359775543213e-02) (14, 4.82077263295650482178e-02) (15, 5.01830922439694404602e-03) (16, -3.27594578266143798828e-01) (17, -2.54490494728088378906e-01) (18, -6.93831592798233032227e-02) (19, -2.58594781160354614258e-01) (20, -1.00364729762077331543e-01) (21, -1.08023047447204589844e-01) (22, 1.67115144431591033936e-02) (23, -1.24076850712299346924e-01) (24, -3.02394688129425048828e-01) (25, -2.07556813955307006836e-01) (26, -3.50615918636322021484e-01) (27, -2.57117807865142822266e-01) (28, -1.76596879959106445312e-01) (29, -7.73676065728068351746e-03) (30, -2.23150793462991714478e-02) (31, 6.34212642908096313477e-02) (32, -2.97026126645505428314e-03) (33, -3.14406931400299072266e-01) (34, -2.91290342807769775391e-01) (35, -1.39977484941482543945e-01) (36, -4.62823361158370971680e-02) (37, -1.81367318145930767059e-03) (38, 1.62356734275817871094e-01) (39, -1.25976681709289550781e-01) (40, 1.67906790971755981445e-01) (41, 2.45804954320192337036e-02) (42, 1.55106574296951293945e-01) (43, -4.04176115989685058594e-01) (44, -1.43608599901199340820e-01) (45, -1.21889509260654449463e-01) (46, -5.03097511827945709229e-02) (47, -2.73302555084228515625e-01) (48, -1.62119400501251220703e+00) (0, -6.74698278307914733887e-02) (1, -1.09132267534732818604e-01) (2, -6.80014193058013916016e-02) (3, -9.00025665760040283203e-02) (4, -3.25295686721801757812e-01) (5, -1.25128775835037231445e-01) (6, -1.19769968092441558838e-01) (7, -9.74181443452835083008e-02) (8, -6.45194798707962036133e-02) (9, -1.92071348428726196289e-01) (10, -2.43679001927375793457e-01) (11, -8.87249186635017395020e-02) (12, -2.72997707128524780273e-01) (13, -1.45191326737403869629e-01) (14, -9.68618690967559814453e-02) (15, -2.71455254405736923218e-02) (16, -1.29887685179710388184e-01) (17, -1.46625265479087829590e-01) (18, -1.37221276760101318359e-01) (19, -2.03315362334251403809e-01) (20, -3.22498589754104614258e-01) (21, -2.70054250955581665039e-01) (22, -1.13217078149318695068e-01) (23, -3.60451817512512207031e-01) (24, 1.22516639530658721924e-02) (25, -9.98125821352005004883e-02) (26, -1.81703656911849975586e-01) (27, -3.80616396665573120117e-01) (28, -3.25469404458999633789e-01) (29, -2.03781619668006896973e-01) (30, -3.30324172973632812500e-01) (31, -2.48079031705856323242e-01) (32, -2.64943223446607589722e-02) (33, -3.03898900747299194336e-01) (34, -2.24292695522308349609e-01) (35, -3.93338918685913085938e-01) (36, -3.63766163587570190430e-01) (37, -1.63697257637977600098e-01) (38, -1.77235588431358337402e-01) (39, -4.75501492619514465332e-02) (40, -2.39959675818681716919e-02) (41, -7.96124339103698730469e-02) (42, -5.70122934877872467041e-02) (43, -3.93205493688583374023e-01) (44, -4.03665572404861450195e-01) (45, -2.79365539550781250000e-01) (46, -2.06939995288848876953e-01) (47, -3.36971692740917205811e-02) (48, -1.37649428844451904297e+00) (0, 5.11272139847278594971e-02) (1, -1.05586405843496322632e-02) (2, 6.16096965968608856201e-02) (3, -1.92732870578765869141e-01) (4, -1.07334755361080169678e-01) (5, -3.48363257944583892822e-02) (6, -2.78195947408676147461e-01) (7, -2.01870903372764587402e-01) (8, 1.10091321170330047607e-01) (9, 5.04645693581551313400e-04) (10, 8.00341889262199401855e-02) (11, 5.05729429423809051514e-02) (12, -1.78260877728462219238e-01) (13, -2.81843066215515136719e-01) (14, -2.16573819518089294434e-01) (15, -2.07807913422584533691e-01) (16, 1.25346034765243530273e-01) (17, 1.57647445797920227051e-01) (18, -2.64516502618789672852e-01) (19, -9.38092842698097229004e-02) (20, -4.55069541931152343750e-02) (21, 1.63667857646942138672e-01) (22, 2.07850709557533264160e-01) (23, 1.24445751309394836426e-01) (24, 2.43761479854583740234e-01) (25, -1.08686778694391250610e-02) (26, 1.63837462663650512695e-01) (27, 3.47503013908863067627e-02) (28, -1.21076844632625579834e-01) (29, -1.26604974269866943359e-01) (30, 1.70284405350685119629e-01) (31, 2.26149603724479675293e-01) (32, -2.85395532846450805664e-01) (33, 2.12857261300086975098e-01) (34, 1.39369383454322814941e-01) (35, -2.12778355926275253296e-02) (36, -1.96321249008178710938e-01) (37, 1.15331364795565605164e-02) (38, 1.45597569644451141357e-02) (39, -7.60266482830047607422e-02) (40, -3.63161474466323852539e-01) (41, 6.41148015856742858887e-02) (42, -2.19686061143875122070e-01) (43, 2.03454345464706420898e-02) (44, -7.73015469312667846680e-02) (45, -1.01842790842056274414e-01) (46, -1.08778700232505798340e-01) (47, -3.27495560050010681152e-02) (48, -1.61787533760070800781e+00) (0, -4.14270386099815368652e-02) (1, -4.32424619793891906738e-02) (2, -1.98943883180618286133e-01) (3, -1.49754390120506286621e-01) (4, -3.90140831470489501953e-01) (5, -2.05223098397254943848e-01) (6, -1.22536301612854003906e-01) (7, -4.98624816536903381348e-02) (8, 1.32952183485031127930e-01) (9, -3.08422476053237915039e-01) (10, -2.36489519476890563965e-01) (11, -3.39598149061203002930e-01) (12, -2.00430542230606079102e-01) (13, -1.04381516575813293457e-01) (14, 1.39452684670686721802e-02) (15, -1.09238691627979278564e-01) (16, -3.07969123125076293945e-01) (17, -4.84146445989608764648e-01) (18, -1.78981468081474304199e-01) (19, -3.76484185457229614258e-01) (20, -3.41772228479385375977e-01) (21, -4.19076412916183471680e-01) (22, -3.11066597700119018555e-01) (23, -3.62724214792251586914e-01) (24, -3.17253530025482177734e-01) (25, -4.59101825952529907227e-01) (26, -5.37276744842529296875e-01) (27, -4.37867254018783569336e-01) (28, -3.95011544227600097656e-01) (29, -4.11802679300308227539e-01) (30, -4.40600007772445678711e-01) (31, -4.05212134122848510742e-01) (32, -1.48467436432838439941e-01) (33, -5.17324507236480712891e-01) (34, -5.50841271877288818359e-01) (35, -8.68919074535369873047e-01) (36, -4.91840541362762451172e-01) (37, -3.82788002490997314453e-01) (38, -2.67336547374725341797e-01) (39, 1.41743710264563560486e-02) (40, -6.55250251293182373047e-02) (41, -3.75025212764739990234e-01) (42, -1.77675083279609680176e-01) (43, -9.17125105857849121094e-01) (44, -4.77057278156280517578e-01) (45, -3.49758476018905639648e-01) (46, -6.43395166844129562378e-03) (47, -4.73016779869794845581e-03) (48, -9.03792858123779296875e-01) (0, -5.84604516625404357910e-02) (1, -3.61098162829875946045e-02) (2, -1.00404590368270874023e-01) (3, -1.03233784437179565430e-01) (4, -6.37692511081695556641e-01) (5, -1.89864322543144226074e-01) (6, -1.09079644083976745605e-01) (7, 2.09165774285793304443e-02) (8, 1.35924741625785827637e-01) (9, -2.63199567794799804688e-01) (10, -1.48155674338340759277e-01) (11, -2.11895987391471862793e-01) (12, -4.37403559684753417969e-01) (13, -5.82456812262535095215e-02) (14, 1.65647324174642562866e-02) (15, 1.84221059083938598633e-01) (16, -2.92642086744308471680e-01) (17, -2.61810302734375000000e-01) (18, -1.90655499696731567383e-01) (19, -3.65739434957504272461e-01) (20, -4.39340174198150634766e-01) (21, -4.72043782472610473633e-01) (22, -3.15207511186599731445e-01) (23, -7.39180922508239746094e-01) (24, -8.39081108570098876953e-02) (25, -2.62513279914855957031e-01) (26, -3.82220864295959472656e-01) (27, -3.84877324104309082031e-01) (28, -4.46847170591354370117e-01) (29, -5.23226857185363769531e-01) (30, -6.36061310768127441406e-01) (31, -5.90960860252380371094e-01) (32, 2.01249405741691589355e-01) (33, -3.37896198034286499023e-01) (34, -4.68432247638702392578e-01) (35, -7.42341756820678710938e-01) (36, -6.42179787158966064453e-01) (37, -4.93257641792297363281e-01) (38, -4.89830195903778076172e-01) (39, -4.12964858114719390869e-02) (40, 1.67873725295066833496e-01) (41, -2.47889429330825805664e-01) (42, -1.24956123530864715576e-01) (43, -1.12368047237396240234e+00) (44, -7.92133748531341552734e-01) (45, -3.58741939067840576172e-01) (46, -1.59939117729663848877e-02) (47, -4.19976115226745605469e-02) (48, -7.17025935649871826172e-01) (0, -1.74239307641983032227e-01) (1, -5.59770762920379638672e-02) (2, -9.42291542887687683105e-02) (3, -1.44042253494262695312e-01) (4, -1.85211852192878723145e-01) (5, -7.13135153055191040039e-02) (6, -1.63314402103424072266e-01) (7, -1.85428578406572341919e-02) (8, -1.11194536089897155762e-01) (9, -1.99747949838638305664e-01) (10, -4.46177460253238677979e-02) (11, -9.70513075590133666992e-02) (12, -1.78644195199012756348e-01) (13, -1.92214697599411010742e-01) (14, -1.45890235900878906250e-01) (15, 1.98529213666915893555e-02) (16, -1.97473138570785522461e-01) (17, -1.60723477602005004883e-01) (18, -1.21367022395133972168e-01) (19, -1.47617474198341369629e-01) (20, -1.76530495285987854004e-01) (21, -1.71967566013336181641e-01) (22, -1.64786323904991149902e-01) (23, -1.19043484330177307129e-01) (24, -1.55340909957885742188e-01) (25, -8.56481865048408508301e-02) (26, -1.16768047213554382324e-01) (27, -1.13955162465572357178e-01) (28, -1.72046676278114318848e-01) (29, -2.11580500006675720215e-01) (30, -1.40498146414756774902e-01) (31, 2.81287968391552567482e-04) (32, 7.34185129404067993164e-02) (33, -1.65248781442642211914e-01) (34, -1.10283508896827697754e-01) (35, -2.57515370845794677734e-01) (36, -1.74658089876174926758e-01) (37, -1.05964407324790954590e-01) (38, -1.20961144566535949707e-02) (39, -1.98671996593475341797e-01) (40, 8.43938514590263366699e-02) (41, -7.15880542993545532227e-02) (42, -2.09730137139558792114e-02) (43, -2.45159909129142761230e-01) (44, -2.21318334341049194336e-01) (45, -8.55221003293991088867e-02) (46, -1.73512160778045654297e-01) (47, -9.35230925679206848145e-02) (48, -1.55932021141052246094e+00) (0, -6.44839257001876831055e-02) (1, -1.69978857040405273438e-01) (2, -1.81345358490943908691e-01) (3, -7.34421312808990478516e-02) (4, -2.40543767809867858887e-01) (5, -1.26980151981115341187e-02) (6, -1.56255707144737243652e-01) (7, -3.93506214022636413574e-02) (8, -3.74211184680461883545e-02) (9, -5.10931760072708129883e-02) (10, -8.86780321598052978516e-02) (11, -1.43939897418022155762e-01) (12, -1.87488183379173278809e-01) (13, -9.60462987422943115234e-02) (14, -6.96584135293960571289e-02) (15, -1.52772841975092887878e-02) (16, -1.09595358371734619141e-01) (17, -1.02210067212581634521e-01) (18, -2.19880506396293640137e-01) (19, -1.49817809462547302246e-01) (20, -2.45510920882225036621e-01) (21, -2.40232437849044799805e-01) (22, -6.84514790773391723633e-02) (23, -9.74396765232086181641e-02) (24, 3.98896150290966033936e-02) (25, -1.84435009956359863281e-01) (26, -1.93484544754028320312e-01) (27, -1.91955476999282836914e-01) (28, -2.20120146870613098145e-01) (29, -1.26582220196723937988e-01) (30, -1.15416169166564941406e-01) (31, -2.46941238641738891602e-01) (32, -1.34799510240554809570e-01) (33, -9.59474071860313415527e-02) (34, -2.29803696274757385254e-01) (35, -3.05922597646713256836e-01) (36, -2.88875907659530639648e-01) (37, -2.54444360733032226562e-01) (38, -2.14046895503997802734e-01) (39, -1.50488108396530151367e-01) (40, -1.50769025087356567383e-01) (41, -6.67074173688888549805e-02) (42, -7.95175805687904357910e-02) (43, -2.67030745744705200195e-01) (44, -2.72143572568893432617e-01) (45, -2.23675876855850219727e-01) (46, -1.67766496539115905762e-01) (47, -2.56899204105138778687e-02) (48, -1.48465621471405029297e+00) (0, -1.17758788168430328369e-01) (1, -9.12726968526840209961e-02) (2, -1.95085316896438598633e-01) (3, -1.77398577332496643066e-01) (4, -2.38120198249816894531e-01) (5, -1.43042858690023422241e-02) (6, -1.65464743971824645996e-01) (7, -5.87449371814727783203e-02) (8, -1.54669448733329772949e-01) (9, -7.15296268463134765625e-02) (10, -1.70662268996238708496e-01) (11, -3.60631793737411499023e-02) (12, -2.37756028771400451660e-01) (13, -2.07219481468200683594e-01) (14, -1.45748127251863479614e-02) (15, -1.06320947408676147461e-01) (16, -8.44943746924400329590e-02) (17, -1.08825966715812683105e-01) (18, -8.51334109902381896973e-02) (19, -1.94393277168273925781e-01) (20, -1.85784012079238891602e-01) (21, -1.15431778132915496826e-01) (22, -9.37637686729431152344e-02) (23, -1.86553850769996643066e-01) (24, 4.32454459369182586670e-02) (25, -1.54432579874992370605e-01) (26, -6.59810677170753479004e-02) (27, -1.05475090444087982178e-01) (28, -2.82456159591674804688e-01) (29, -1.88885837793350219727e-01) (30, -1.33652240037918090820e-01) (31, -1.57406374812126159668e-01) (32, -9.04312282800674438477e-02) (33, -6.06150999665260314941e-02) (34, -1.88317805528640747070e-01) (35, -2.75499075651168823242e-01) (36, -2.71510988473892211914e-01) (37, -2.34694108366966247559e-01) (38, -7.23283737897872924805e-02) (39, -1.02302707731723785400e-01) (40, -1.41358718276023864746e-01) (41, -1.55085101723670959473e-01) (42, -8.12161043286323547363e-02) (43, -2.85410165786743164062e-01) (44, -2.89260327816009521484e-01) (45, -1.46976009011268615723e-01) (46, -1.26929983496665954590e-01) (47, -6.16059564054012298584e-02) (48, -1.48573803901672363281e+00) (0, -4.90027442574501037598e-02) (1, -1.48142546415328979492e-01) (2, -1.44751042127609252930e-01) (3, -1.24141171574592590332e-01) (4, -4.60163533687591552734e-01) (5, -3.46227973699569702148e-01) (6, -8.66374447941780090332e-02) (7, -1.64744541049003601074e-01) (8, 1.74659952521324157715e-01) (9, -3.33780735731124877930e-01) (10, -2.04310894012451171875e-01) (11, -3.59774291515350341797e-01) (12, -3.63893002271652221680e-01) (13, -9.70209017395973205566e-02) (14, -3.33930291235446929932e-02) (15, -2.81680300831794738770e-02) (16, -5.18754959106445312500e-01) (17, -4.47080790996551513672e-01) (18, -2.63631254434585571289e-01) (19, -4.06416863203048706055e-01) (20, -3.43634843826293945312e-01) (21, -4.65337902307510375977e-01) (22, -3.74753117561340332031e-01) (23, -3.84675502777099609375e-01) (24, -5.12007236480712890625e-01) (25, -4.36700820922851562500e-01) (26, -6.32005214691162109375e-01) (27, -6.01229369640350341797e-01) (28, -4.81527209281921386719e-01) (29, -6.03867352008819580078e-01) (30, -5.65266907215118408203e-01) (31, -4.18716669082641601562e-01) (32, -3.06567192077636718750e-01) (33, -5.82595109939575195312e-01) (34, -6.78746461868286132812e-01) (35, -1.12616980075836181641e+00) (36, -4.63364094495773315430e-01) (37, -3.45284700393676757812e-01) (38, -3.60424488782882690430e-01) (39, -1.08937636017799377441e-01) (40, 8.00987333059310913086e-02) (41, -3.87511938810348510742e-01) (42, -2.04201359301805496216e-02) (43, -1.39299285411834716797e+00) (44, -6.07563972473144531250e-01) (45, -3.24702709913253784180e-01) (46, 3.27840680256485939026e-03) (47, 4.38318215310573577881e-02) (48, -5.49524307250976562500e-01) (0, -1.00891031324863433838e-01) (1, -1.33846282958984375000e-01) (2, -1.81423768401145935059e-01) (3, -1.24798007309436798096e-01) (4, -1.27093046903610229492e-01) (5, -1.89191579818725585938e-01) (6, 1.32627896964550018311e-02) (7, 5.30344173312187194824e-02) (8, -8.54794830083847045898e-02) (9, -3.28753560781478881836e-01) (10, -6.25168457627296447754e-02) (11, -9.61809977889060974121e-02) (12, -3.19768339395523071289e-01) (13, -2.64390051364898681641e-01) (14, 1.35122746229171752930e-01) (15, -4.44373190402984619141e-02) (16, -2.03193187713623046875e-01) (17, -4.55655127763748168945e-01) (18, -1.33365795016288757324e-01) (19, -2.59918332099914550781e-01) (20, -2.22224310040473937988e-01) (21, -2.24330946803092956543e-01) (22, -1.99669614434242248535e-01) (23, 3.96297127008438110352e-02) (24, -4.28514868021011352539e-01) (25, -2.64238059520721435547e-01) (26, -2.86945074796676635742e-01) (27, -3.47027242183685302734e-01) (28, -2.59246230125427246094e-01) (29, -1.49214252829551696777e-01) (30, 1.25804385170340538025e-02) (31, 3.37668024003505706787e-02) (32, -1.38068512082099914551e-01) (33, -3.40107232332229614258e-01) (34, -9.53760445117950439453e-02) (35, -3.31653565168380737305e-01) (36, -2.11714565753936767578e-01) (37, -1.82967889122664928436e-03) (38, 4.12939935922622680664e-02) (39, -2.06589534878730773926e-01) (40, -7.84128811210393905640e-03) (41, -1.20201803743839263916e-01) (42, 1.03021003305912017822e-01) (43, -4.51857417821884155273e-01) (44, -2.52340823411941528320e-01) (45, -2.75124162435531616211e-02) (46, -3.26054356992244720459e-02) (47, -1.63039565086364746094e-01) (48, -1.56246793270111083984e+00) (0, -2.99767795950174331665e-02) (1, -4.54618372023105621338e-02) (2, -2.06978470087051391602e-01) (3, -1.75207704305648803711e-01) (4, -2.70320057868957519531e-01) (5, -2.67924331128597259521e-02) (6, -6.37900382280349731445e-02) (7, -9.03658270835876464844e-02) (8, -4.03869189321994781494e-02) (9, -1.22471556067466735840e-01) (10, -1.71491026878356933594e-01) (11, -1.13881349563598632812e-01) (12, -2.84491151571273803711e-01) (13, -2.52667337656021118164e-01) (14, -8.34867134690284729004e-02) (15, -3.39126996695995330811e-02) (16, 1.86247322708368301392e-02) (17, -3.05553339421749114990e-02) (18, -7.00567439198493957520e-02) (19, -1.65453046560287475586e-01) (20, -1.75311937928199768066e-01) (21, -8.70079696178436279297e-02) (22, 2.03044079244136810303e-02) (23, -7.71718472242355346680e-02) (24, 4.53727319836616516113e-02) (25, -1.67670305818319320679e-02) (26, -1.73173666000366210938e-01) (27, -1.81591182947158813477e-01) (28, -2.31295317411422729492e-01) (29, -1.53898656368255615234e-01) (30, -1.56163811683654785156e-01) (31, -1.45991578698158264160e-01) (32, 2.41780951619148254395e-02) (33, -7.11764246225357055664e-02) (34, -3.50530855357646942139e-02) (35, -2.09070965647697448730e-01) (36, -3.16735148429870605469e-01) (37, -1.89378991723060607910e-01) (38, -2.38214299082756042480e-01) (39, -1.35009258985519409180e-01) (40, -1.22228339314460754395e-01) (41, -1.51586443185806274414e-01) (42, -7.64091685414314270020e-02) (43, -3.00737619400024414062e-01) (44, -3.40324372053146362305e-01) (45, -1.67384594678878784180e-01) (46, -8.67170318961143493652e-02) (47, -1.58088564872741699219e-01) (48, -1.55333709716796875000e+00) (0, -6.69319853186607360840e-02) (1, 1.78385540843009948730e-01) (2, 1.40536189079284667969e-01) (3, -2.11050257086753845215e-01) (4, 2.94077306985855102539e-01) (5, 6.29354342818260192871e-02) (6, -2.60928601026535034180e-01) (7, -9.06607881188392639160e-02) (8, -1.50428026914596557617e-01) (9, 4.96868729591369628906e-01) (10, 2.16099679470062255859e-01) (11, 1.00307062268257141113e-01) (12, -3.17811101675033569336e-01) (13, -4.51149791479110717773e-01) (14, -3.25038075447082519531e-01) (15, -3.13083380460739135742e-01) (16, 3.43897342681884765625e-01) (17, 4.49947774410247802734e-01) (18, 7.60657414793968200684e-02) (19, 2.27350100874900817871e-01) (20, -1.02356866002082824707e-01) (21, 2.08995461463928222656e-01) (22, 2.85221874713897705078e-01) (23, 7.30453670024871826172e-01) (24, 4.29826587438583374023e-01) (25, 4.17294919490814208984e-01) (26, 5.36754608154296875000e-01) (27, 2.39548936486244201660e-01) (28, -3.31590324640274047852e-02) (29, 4.94058012962341308594e-01) (30, 8.05232524871826171875e-01) (31, 7.71085739135742187500e-01) (32, -4.80596311390399932861e-02) (33, 6.85584366321563720703e-01) (34, 8.05261611938476562500e-01) (35, 5.55513978004455566406e-01) (36, 4.09544892609119415283e-02) (37, 5.60026466846466064453e-01) (38, 5.31856119632720947266e-01) (39, 9.85194742679595947266e-02) (40, -1.88434287905693054199e-01) (41, 2.60811954736709594727e-01) (42, -3.42337749898433685303e-02) (43, 7.76784420013427734375e-01) (44, 3.82459938526153564453e-01) (45, 2.99359947443008422852e-01) (46, -5.38401007652282714844e-02) (47, -4.59216255694627761841e-03) (48, -1.36519408226013183594e+00) (0, -6.28976151347160339355e-02) (1, 9.69674438238143920898e-03) (2, 3.76360863447189331055e-01) (3, 2.22399979829788208008e-01) (4, -5.25736033916473388672e-01) (5, -3.39407622814178466797e-01) (6, -3.25566351413726806641e-01) (7, 7.67057165503501892090e-02) (8, 5.27529120445251464844e-01) (9, 2.21628416329622268677e-02) (10, 2.70123109221458435059e-02) (11, -1.10264681279659271240e-01) (12, -5.05657494068145751953e-01) (13, -1.31538450717926025391e-01) (14, -1.91303312778472900391e-01) (15, 1.41728430986404418945e-01) (16, 3.67125272750854492188e-02) (17, 1.03604875504970550537e-01) (18, -1.94850161671638488770e-01) (19, -2.40393087267875671387e-01) (20, -8.15881311893463134766e-01) (21, -7.50827670097351074219e-01) (22, -4.65356141328811645508e-01) (23, -9.08854782581329345703e-01) (24, 2.15889975428581237793e-01) (25, -1.88558280467987060547e-01) (26, -2.27444380521774291992e-01) (27, -5.21139681339263916016e-01) (28, -6.47287130355834960938e-01) (29, -7.22208440303802490234e-01) (30, -8.78929436206817626953e-01) (31, -8.97491455078125000000e-01) (32, 2.79789436608552932739e-02) (33, -3.99915337562561035156e-01) (34, -5.92950522899627685547e-01) (35, -1.13246715068817138672e+00) (36, -9.23834860324859619141e-01) (37, -6.12982571125030517578e-01) (38, -5.23961305618286132812e-01) (39, 1.30554154515266418457e-01) (40, -1.22024320065975189209e-01) (41, -4.48990523815155029297e-01) (42, -4.66146528720855712891e-01) (43, -1.20370495319366455078e+00) (44, -1.04192912578582763672e+00) (45, -4.75606322288513183594e-01) (46, 1.92972853779792785645e-01) (47, 4.10565100610256195068e-02) (48, -4.97361421585083007812e-01) (0, -1.22217901051044464111e-01) (1, 9.18333511799573898315e-03) (2, 7.02615007758140563965e-02) (3, -2.90521979331970214844e-01) (4, 1.23290434479713439941e-01) (5, -1.19613343849778175354e-02) (6, -1.13004818558692932129e-01) (7, 3.47428023815155029297e-02) (8, -5.78091442584991455078e-02) (9, 2.05616950988769531250e-01) (10, 3.37610214948654174805e-01) (11, -6.45798444747924804688e-02) (12, -2.27227658033370971680e-01) (13, -1.91121906042098999023e-01) (14, -3.11833024024963378906e-01) (15, -5.22693395614624023438e-01) (16, 4.08850938081741333008e-01) (17, 4.09636288881301879883e-01) (18, 2.39483028650283813477e-01) (19, 1.36486187577247619629e-01) (20, 2.04709209501743316650e-02) (21, 7.03616067767143249512e-02) (22, 2.06043258309364318848e-01) (23, 5.73887765407562255859e-01) (24, 2.77580499649047851562e-01) (25, 5.31556129455566406250e-01) (26, 4.96884763240814208984e-01) (27, 1.73762172460556030273e-01) (28, -5.54425679147243499756e-02) (29, 3.56576085090637207031e-01) (30, 6.03441059589385986328e-01) (31, 9.00691688060760498047e-01) (32, -3.97267490625381469727e-02) (33, 8.62620413303375244141e-01) (34, 8.93855452537536621094e-01) (35, 5.85670590400695800781e-01) (36, 1.99156314134597778320e-01) (37, 4.89859133958816528320e-01) (38, 4.20143008232116699219e-01) (39, 1.95624351501464843750e-01) 