FANN_FLO_2.1
num_layers=4
learning_rate=0.700000
connection_rate=1.000000
network_type=0
learning_momentum=0.000000
training_algorithm=2
train_error_function=1
train_stop_function=0
cascade_output_change_fraction=0.010000
quickprop_decay=-0.000100
quickprop_mu=1.750000
rprop_increase_factor=1.200000
rprop_decrease_factor=0.500000
rprop_delta_min=0.000000
rprop_delta_max=50.000000
rprop_delta_zero=0.100000
cascade_output_stagnation_epochs=12
cascade_candidate_change_fraction=0.010000
cascade_candidate_stagnation_epochs=12
cascade_max_out_epochs=150
cascade_min_out_epochs=50
cascade_max_cand_epochs=150
cascade_min_cand_epochs=50
cascade_num_candidate_groups=2
bit_fail_limit=3.49999994039535522461e-01
cascade_candidate_limit=1.00000000000000000000e+03
cascade_weight_multiplier=4.00000005960464477539e-01
cascade_activation_functions_count=10
cascade_activation_functions=3 5 7 8 10 11 14 15 16 17 
cascade_activation_steepnesses_count=4
cascade_activation_steepnesses=2.50000000000000000000e-01 5.00000000000000000000e-01 7.50000000000000000000e-01 1.00000000000000000000e+00 
layer_sizes=4 6 6 2 
scale_included=1
scale_mean_in=1000.451233 1.045002 4.500000 
scale_deviation_in=0.287235 0.028723 2.872281 
scale_new_min_in=-1.000000 -1.000000 -1.000000 
scale_factor_in=1.000000 1.000000 1.000000 
scale_mean_out=1000.494019 
scale_deviation_out=0.812039 
scale_new_min_out=-1.000000 
scale_factor_out=1.000000 
neurons (num_inputs, activation_function, activation_steepness)=(0, 0, 0.00000000000000000000e+00) (0, 0, 0.00000000000000000000e+00) (0, 0, 0.00000000000000000000e+00) (0, 0, 0.00000000000000000000e+00) (4, 5, 5.00000000000000000000e-01) (4, 5, 5.00000000000000000000e-01) (4, 5, 5.00000000000000000000e-01) (4, 5, 5.00000000000000000000e-01) (4, 5, 5.00000000000000000000e-01) (0, 5, 0.00000000000000000000e+00) (6, 5, 5.00000000000000000000e-01) (6, 5, 5.00000000000000000000e-01) (6, 5, 5.00000000000000000000e-01) (6, 5, 5.00000000000000000000e-01) (6, 5, 5.00000000000000000000e-01) (0, 5, 0.00000000000000000000e+00) (6, 0, 5.00000000000000000000e-01) (0, 0, 0.00000000000000000000e+00) 
connections (connected_to_neuron, weight)=(0, 6.16859644651412963867e-02) (1, -5.08703961968421936035e-02) (2, 1.76546442508697509766e+00) (3, -5.21670103073120117188e-01) (0, 1.65464226156473159790e-02) (1, -2.57120653986930847168e-02) (2, -2.49990653991699218750e+01) (3, -2.25597820281982421875e+01) (0, -2.26178392767906188965e-01) (1, -1.25456854701042175293e-01) (2, 6.22594654560089111328e-01) (3, 3.60418021678924560547e-01) (0, 1.33981153368949890137e-01) (1, -8.08155089616775512695e-02) (2, -5.51908016204833984375e-01) (3, 3.52464377880096435547e-01) (0, -1.96817126125097274780e-02) (1, 1.22116189450025558472e-02) (2, -3.43730902671813964844e+00) (3, 1.90945416688919067383e-01) (4, 2.55856347084045410156e+00) (5, -2.69946765899658203125e+00) (6, 1.32134306430816650391e+00) (7, -2.01005488634109497070e-01) (8, 6.54371213912963867188e+00) (9, 1.58185017108917236328e+00) (4, 2.09411811828613281250e+01) (5, -3.28213165283203125000e+02) (6, 4.41442757844924926758e-01) (7, -4.89201515913009643555e-01) (8, 2.72237920761108398438e+00) (9, 1.15096437931060791016e+00) (4, -8.81167829036712646484e-01) (5, 9.34801757335662841797e-01) (6, 7.75333762168884277344e-01) (7, 1.46252644062042236328e+00) (8, -2.05498933792114257812e-01) (9, 4.05914515256881713867e-01) (4, -9.21363413333892822266e-01) (5, 7.41075932979583740234e-01) (6, 6.45811378955841064453e-01) (7, 1.54673683643341064453e+00) (8, -3.05084347724914550781e-01) (9, 3.76062035560607910156e-01) (4, -6.93217635154724121094e-01) (5, 2.31430623680353164673e-02) (6, -3.52749854326248168945e-01) (7, 6.04865610599517822266e-01) (8, -9.10737872123718261719e-01) (9, -6.73453360795974731445e-02) (10, -1.71935904026031494141e+00) (11, 5.00357896089553833008e-02) (12, 1.04767239093780517578e+00) (13, 1.77991712093353271484e+00) (14, 2.12724933624267578125e+01) (15, 2.82491654157638549805e-01) 
