0 0 0 0 0 -0.135509 -0.0961122 0 -0.12231 0 -0.118342 0 0 0.118223 -0.0527225 0.0646614 0 0 0 -0.130245 0 0 0.022397 -0.144043 0 0 0 -0.00754898 -0.117209 0 0 0.0723191 0 -0.115518 -0.0439536 -0.0834707 0 -0.0995363 0 0 0.00763756 -0.0202521 0 0.0759328 0 0 0.0988876 0.102809 -0.0943206 -0.132624 0.00891387 0 0 0 0 -0.00503956 -0.110328 0.00820378 0.0740944 0 0.104396 -0.124407 0 -0.139235 0.0775726 0 0 0 0 0 
0.0879271 0.125891 0.0921624 0 0 0 0 0.0960839 0 -0.020769 0 0 0 0.13104 0 0 0 0 0 -0.000751324 0 0 -0.0492674 0 0 -0.122963 0 0.040731 0 0 0.13906 0.0860034 0 0 -0.014995 -0.0325841 0 0 0 -0.0861991 0.101309 0 0.0242943 -0.0485059 0 0.125002 0 -0.0425518 0.0107807 0 0 -0.013159 0 0.101014 0 0.0852029 0 -0.0405924 -0.0783796 0 0 -0.0693342 0.047224 0.087027 -0.0735406 -0.0916345 0 0 0 0 
0.0717993 0 0.0503968 0.109231 -0.0904043 -0.0759688 0 0.106378 0.0270498 0.139099 0 0 -0.123177 0 -0.0523101 -0.082647 -0.0212314 0 -0.144264 0 0 -0.0700612 0 0.00564864 0 0.0740876 0 0.0360583 0 0 0.140572 0 0.0380792 -0.0376613 0 0 0.108827 0 0.0609779 -0.105049 0 0 0.0148665 -0.123504 0 0 0.0946027 -0.0676509 0 0 0 0.0756435 0 0 0.0480903 0 0 0 0 -0.0577683 0.0417793 0.00785639 0 0.0555761 0 0.0764797 0 -0.0238147 0 0 
0 0.0293541 0 -0.0394102 -0.0203192 -0.0418821 0 0 -0.0777916 0.0791768 -0.0311329 0 -0.0488337 0.0985461 0 0 0 0 -0.137604 0 0.0597455 0.131245 0.105608 0 0 -0.122668 -0.0661936 0 0.000422527 -0.0998182 0 -0.120133 -0.040445 0 0 0 0 0.0183076 0.070066 0 0 0 -0.0091129 0 0.082722 0 0 0.0777667 0.0724876 0 -0.0323986 -0.143532 0 0 0 0 0 0 0 0 0.00614748 0.100947 0 -0.0580567 0 0.032077 0 -0.00743943 0.1385 -0.115186 
0 0.138969 0 0 0 -0.119903 -0.054284 0.0424365 0 0.0733177 0 0 0.0424547 0.116208 -0.0378888 -0.125793 0 0 0 0 0 0 0 0.106701 -0.0516752 0.101173 0 0 0 0 0 0.106583 -0.0798523 -0.110656 -0.121072 -0.0519778 0.00942951 0 0 0 0 0.0726332 0.0286582 0.12399 0 0.0817197 0 0 0 -0.10216 0 -0.139986 0.023905 -0.0619186 0 0 0 0 0.0974706 0.00734204 0 0 0 0 0.00783779 -0.0524075 -0.0919318 -0.0848934 0 0 
0 0.0440154 0 0.0927533 0.00135221 0.00818165 -0.0255319 0 -0.0724691 0 0 0.0834149 0 -0.0929825 0 0 0 -0.0338452 0.10436 0 0 -0.116158 -0.00385879 0 0.0178154 0 0 0 0.0251654 0.123039 0.101401 0 0 0 -0.0984092 0 0 -0.0535561 0.0702399 0 0 0.00227542 0.00236416 0 0 0 -0.102645 0 0 0 0 0 0.0632674 0 -0.0277708 0 0 0 0 -0.0402548 -0.0722594 0 0 0.0586613 0 0 0 -0.0214177 -0.115638 0 
-0.0866439 0.07553 0.097292 0 0 0.10546 0 0.139331 0 0 -0.0716565 0 0.101978 -0.0491172 0 0 0 -0.0710629 0.0687066 0.0509001 0 0 -0.136809 0.0759662 -0.0696848 -0.0637578 -0.101281 -0.0675973 -0.0926144 0 -0.044246 0 0.0510446 0 0 0 0.134548 0 0 0 0 0 0.059362 -0.023219 0 0.051504 -0.142946 0.0407043 0 0 0 0 0.0811209 -0.0844104 0 0 0 0 -0.0237981 -0.0722755 -0.0624702 0 -0.0991523 -0.134197 -0.085713 -0.0708673 0 -0.0555589 0 0.0365599 
-0.00605935 0 -0.0658844 -0.044708 0.088376 0.112088 0 -0.104596 0.0264537 -0.0330854 0 -0.0228751 0 -0.0918527 0 0 0 -0.105281 0.00387943 -0.0115003 -0.00808671 0.0427266 -0.00764164 0 0 0 0 -0.000149679 0 0.0480748 0 0.0196657 -0.105944 0 0 0 -0.0647666 0 -0.0702075 0 0 -0.118562 -0.0146846 0 0 -0.089141 0 0.10654 0 -0.0842688 0 0.125061 0 0 0.127722 -0.0271063 0 0 0 0 0.126735 0.0847709 -0.0127033 -0.114065 0 -0.136391 -0.124478 -0.0711405 -0.116709 0 
0.0133355 0.0920364 -0.0076489 -0.0705153 0 -0.0231596 0.0489172 0 -0.134039 0 0 0 -0.0689304 0 0 -0.124146 0 0 0.129412 0.0825274 -0.0741514 0 0 0 0 -0.126028 0 0 0 0.0352782 0.0276615 0.046431 0 0 0 0 0.087518 0.117108 0 -0.0781788 0.0290951 0 0.0993516 0 0.0438384 0.133244 -0.033576 0 -0.00602164 0 0 -0.0882858 0.0944359 -0.00921352 0 -0.0661033 0 -0.140635 -0.0536065 0 0 0 -0.00253339 0.079391 -0.0360814 0.103523 0.0434239 -0.075679 0.124634 0 
0 -0.104011 0 0 0.11692 0 0.141492 0 0 0 0 0.0386274 -0.0554466 -0.130667 0 0.0819677 0 -0.0190162 0 0 -0.0582476 0 0 0.139652 0.0576082 0 0 0 0 -0.108591 0.123025 -0.12327 0 -0.0343092 0 0.095957 0 0 0 0 0 -0.122407 0 0.121256 0.0207 0.125222 0.106035 0 0.131114 -0.0576605 0 0 0 0.0498697 0 -0.0313971 0 0.041559 0.0400648 0 0 0 0.135759 -0.090886 0.00743054 -0.112563 0.131649 0 0 0 
-0.0653993 0 0 -0.0278097 0 0 0 -0.0532288 0 -0.000952081 0.107645 0 -0.104497 0 -0.0509753 0 -0.0253612 0 0 0 0.0292491 0 0 0 0 -0.00154446 0.0522204 0 0.063633 0 -0.027803 0.0403807 0 0.141876 0 -0.0587128 -0.00171684 -0.100992 0 0.00529611 0 0 0 -0.0773769 0 0.0654864 0.137983 0.105689 0.0291974 0 0 0 0 0 0.124945 0 0 0 0.0363681 0.0523769 0 0 0 -0.00852659 0 0.0585042 0 0 0 -0.0331516 
-0.129483 0.0105326 0 0.0662228 0 0 -0.0787832 0 0 0.111853 0.0906246 -0.0946463 0.0774947 -0.0296096 0 -0.115513 0 0 0 0.121777 0 0 0 0.0129218 0.0665681 0 0 0 0 -0.0249174 0.143524 -0.0471081 0 0 -0.0479747 0 -0.116091 0.0755018 0 0 -0.0889633 0 -0.0336533 0 0.123676 0 0 0 0.142488 0.0817426 -0.0412281 0 0.0560716 0 0 0 0.0322661 0 0.109354 0.0951983 0.0495608 0 0 -0.0274183 0 -0.0481497 0 0 0 0.0474599 
0.00381813 -0.0600028 -0.0214636 0.0400672 0.128357 0 0 0 0 0.128426 0 0.0335792 -0.00614527 -0.042771 -0.0788014 0.0497962 0.0826156 0 0.0638409 0.038661 0 0 0.144315 0 0 -0.096491 0 -0.0688692 0 -0.090457 -0.124517 -0.0258539 0 0 -0.0463866 0.0573261 0 0 0.0866374 0 0 0 -0.0791531 0.0551076 0 0.0389636 0.122043 0.00032885 0.0275679 0.0618962 0 -0.108365 -0.055703 -0.110921 0 0 0 0.130096 -0.111912 0 0 -0.0885774 -0.00160376 0.00954166 0 -0.0128233 0 -0.0756263 0.0565104 0.00923494 
-0.122096 0.0936851 -0.0218131 -0.122033 0 -0.136345 0 0 0.00538661 -0.0899386 0 -0.0128269 0 0.133483 0.0141781 0.0941806 0 0.0804505 -0.0916112 -0.0701101 0 0 0 0 0 -0.131016 -0.0314699 -0.0910918 0 -0.0366226 0 0.0949582 0.136701 0 0 0.075339 0 -0.0212526 0.112023 0.0547973 0.0336179 0 0.122988 -0.0616608 0 0.051277 0 0 -0.0239988 -0.116617 0.00316369 0 -0.0572109 0 -0.12628 0 -0.00312453 0 -0.115988 0.0234495 0 -0.0265609 -0.0708823 0.0325889 0 -0.00553142 0.132657 0 0 -0.141206 
0 0 0 0.0750735 -0.0734401 0 0 0.0399368 0.0962626 0 0.0138922 0.0520704 0.0745835 0 0 0 0 0 0 0 0 0 0 -0.122391 -0.0609413 -0.0534903 0.00141612 0 -0.0751485 0.127609 0.121117 0.0350063 0 0.089516 -0.066656 -0.0524355 0 -0.102949 -0.123005 0 -0.0677654 0 0 0.050298 0 0 0 0 -0.0234344 0.0701119 -0.114004 -0.111722 0.10144 0 -0.109624 0 0 -0.0206326 0 0.000770653 -0.0453428 0 -0.0340896 0 0 0.107597 -0.0905663 0 0 -0.0241957 
0 -0.0366589 0 0 0.0651516 -0.0448429 0 0 0.0545203 0 0 0 0.0529096 0 -0.125588 0 0 -0.0998079 0 0 0 -0.040537 0.0332308 0 -0.0238197 0 0 0.0169273 -0.0279231 0.0483802 0 -0.142183 0 0 -0.0742235 0 0.00718678 0 0 0.049485 0.00207901 0 0 -0.0831324 -0.0379788 0 -0.0837601 -0.103132 -0.0935433 0 0 0 0 0.014942 0 0 0 0 -0.0520947 -0.122651 0 0 0 0 0.00678463 0.0637902 0.0363756 0 0.0970233 0.142058 
-0.0579177 -0.0589574 -0.115842 0 0 0 0 0 0 0 0.12736 -0.0771982 -0.0453681 -0.0400628 0.143335 0 0 0 0.138632 0.016191 0 0.102681 0.140415 0.00220075 0.0123032 -0.0048874 0.0322507 0.0550253 0 0 -0.0273749 0 0 -0.126003 0.100697 -0.06337 -0.093929 0 0 0 0.0557271 0 -0.110863 0 0.0458476 0 0 0 0 0.0883806 0 0.0662078 0 -0.0313923 -0.000490525 -0.0985964 0 0 0 -0.124479 -0.140219 0.135847 0.119371 0.0383665 0.0708316 0.125291 0 -0.0529482 0 0 
-0.0300402 0 0.0829752 0 0.0973179 -0.0924531 0 -0.130618 0 0 0.0676618 0 0.0426253 0 0 0.104601 -0.068328 -0.125891 0 -0.0304009 0.0824998 -0.109018 -0.0136113 -0.0260226 0 0.0222681 0.0973243 0.0399275 0 0.0487131 -0.0880409 0.0855713 0 0.0485248 0 0.0670417 0 -0.107767 0.0132806 0 -0.11006 -0.0767714 0.0416183 -0.113814 0 0 0 0.0749822 0.00843255 0 0 -0.119212 0.133591 0 0 -0.00364588 -0.117387 0 0.0403011 0 0 0 0.0590834 0.000749635 -0.0308402 0 0 0 -0.043899 -0.111306 
0 0 0 0 0 0 0 0.0650321 0.128862 0 0.084253 0 -0.0687077 0 0.134783 0.131147 0.114729 0 -0.0838458 0 0 -0.0349483 -0.020161 0.143311 0 0 0.0465364 -0.0154604 0 0 0 -0.0859241 0 -0.0233292 0 0.12224 -0.0512735 0.0598071 -0.135692 0 0 -0.043191 0 0 0 0 -0.0406697 0 0 -0.0211114 0 -0.0125818 0 -0.121601 0 0 0 0.0213397 0 -0.0305068 0 -0.0217912 0.037101 -0.0837316 0 0 0.0398061 0 0 0.019974 
-0.131364 0 0 0.00579642 0 -0.041542 0 0.0924393 0.119756 0.113229 0.143923 0.0469172 0 0.107593 0.0442702 0 0 0.135623 0.0355122 0 0 0 0 -0.00342816 -0.102463 0 0.109397 0 0 0 0.0319935 -0.0666846 0 0.114339 -0.10651 -0.0459419 -0.127844 0 -0.122673 0 -0.104459 0 0.0586252 0.042181 -0.0525144 0.0655591 0 0.00589672 -0.0876252 0 -0.108601 -0.0235903 0.00189513 -0.100348 -0.105885 0 -0.0841506 0 -0.0442015 0 0 -0.137303 0 -0.0454102 0 -0.0504555 0 0 0 0 
0 -0.0535701 0 0 -0.102782 -0.0639159 0 0 -0.0736806 0 0.0840632 0 0.0537247 0 0 0 0 0.0390269 0 0.0372756 0 0 0 -0.0537136 0 0.0962902 0 -0.0205634 0 -0.0988947 0 0 0 0 0 0.0570601 0.0617191 -0.13879 0 0.0446448 0.0309663 0 0 0 0 0 -0.0758513 0 -0.000682652 0 0 0 0 -0.0284366 0 -0.0989381 0 0 -0.0557153 0 0 0.0543668 0 -0.00230257 0 -0.0580526 -0.0381205 0 0.030436 -0.138365 
0 -0.0238777 -0.0109624 0.0118869 0.0347467 -0.0332277 0.0154786 -0.0315519 -0.13904 0 0.144322 0.0470974 0 0.0237362 -0.07469 0 0 0 0 0.132061 0 -0.0233089 -0.138154 0.0477624 0.0504094 0 0 0 0 -0.0331662 0.118533 -0.0419284 0.043131 0 -0.0630149 0 0.00568307 -0.0151349 -0.141059 -0.0459065 0.0191815 0.063677 -0.12045 0.0132402 0.0755528 0.0586473 -0.134456 0 0 -0.0904129 0.0329626 0 0 0 0 -0.105501 0 0 -0.114737 0.0222956 0.0135095 0.115797 0.0556512 0 -0.0132038 0.0547541 0 -0.0568812 0 -0.00288632 
0.0679593 0.0798353 0.134708 0 0 0.0294304 0.0434766 0 0 0 0.136194 0 0.0474376 0.129676 0 0 0.0634167 0 0.101735 -0.0197448 0 -0.0680853 0.0776533 0 0 0.0804278 0.0912494 0 -0.00293687 0 -0.0111505 -0.0334208 0 -0.0481522 -0.143963 0 -0.116029 0 0 0 0.139175 0.0315898 -0.133371 0 0.0743605 0.123753 -0.130679 -0.126143 -0.0175146 0.0766913 0 0 0 0.113923 -0.107217 0 0 0.0503094 -0.0325299 -0.119125 0.0231832 0 -0.0850105 0 -0.105666 0 0 0 0 0 
-0.131553 0 0 0 0.0206801 0.10705 -0.0151829 0.0700736 -0.0892757 0 0 -0.107804 -0.0276721 0.0183762 -0.0234358 0.0704839 0 0 -0.080638 0 0 0 0 0.0728645 0.0267012 0 0 0 0 -0.097763 0.144344 -0.0101206 -0.0585804 -0.1184 0 0.0025716 0.1157 0 0 0.0437309 0 0.126164 0 0.0546212 -0.124589 0 -0.113071 -0.107599 0 -0.107663 0.132619 0 0 -0.045116 0.140042 0.122959 -0.0625833 0 0 0 0 0.107312 0.144157 0 -0.12484 0 0 -0.092294 0 0 
0.00832133 0 0.0816057 -0.0109245 0 -0.0152901 0 -0.0483635 0 0 -0.0874904 0 -0.124586 0 0.0373471 0.136435 0 -0.101476 0 0 0 0 -0.0720973 0 -0.0253548 0 0.127433 0 -0.0300428 0 0 0.0333108 0 0.00602182 -0.14093 0 0.111278 0 0 0.0134404 0.0235824 0 0 0 0.044993 0.0878058 0.00186557 -0.141751 0 0 0.057833 0 -0.108197 -0.0351867 -0.00201333 0.0699583 -0.0861963 -0.0257056 0.0505373 0.112502 0 0 0.143122 -0.119755 0 0.0954841 -0.100941 -0.0416782 -0.0584718 0.137511 
0.0263343 -0.0659763 0 0.0432881 0.0591635 -0.0449151 -0.128948 0.0634218 0 0 0.109022 0.0923199 0 0 0 -0.0279718 0 0 0.000596208 -0.00599883 -0.107314 -0.00344023 -0.028687 -0.095085 0 0.0146158 0.0470723 0 -0.0929013 0 0.0805937 0.0444695 0 0 0 -0.136494 -0.0536583 0 0.0847506 0 0.0127755 0 0.128496 -0.0821313 0 0.0768924 0 -0.133885 0 0 -0.0749766 0.0943737 -0.0129992 -0.0708619 0.0267192 0 -0.109178 -0.0935292 -0.0862458 0.102671 0 -0.129743 -0.123681 0 0 0 0 0 -0.0208397 0 
0.0498117 0 0 0.0514581 0 0 0.0568728 0 -0.0521675 0 0.00599453 0.142341 -0.103814 0 0 0 -0.0124362 0.0522522 -0.0458779 -0.142165 0.0812242 0.140765 0.0863536 0 0 -0.0839724 -0.0108777 0 0 0 0 0 0.0913727 0 0 -0.0674896 0.000623564 0 -0.0798212 0 0 0.00871556 0 0 0 0 0 0.126811 -0.0753375 0.0529156 0 -0.0627 0.136921 0.0385656 0.00334909 0 0 0 0 0.11614 0.0229443 0 0 0 0.140981 0.0885923 0 0 -0.0403713 0 
0 0 -0.0205442 -0.00543936 0 0 -0.0199201 0.0847516 0 0 0 -0.0052267 0 0 -0.140131 0.000244418 0.088963 -0.103314 0 0 -0.0400482 0 -0.137088 0 0 -0.0712044 0 0 0 -0.0246497 0 -0.0320569 0.100829 0.13659 0 -0.0999949 0 0.133376 0.123592 0 -0.0200937 0 0 0 0.00336022 0 0 0.12208 0 0.0606869 0 -0.122072 0 0 0 0 0 -0.0590465 -0.0916842 0.101005 0 0 0 0 0 -0.0666569 0 0.0811111 0 0 
0 0 0 0.114766 0 0 0 0.0335722 0.0732573 -0.0851358 0 0 0 0 0 -0.104109 0 0 0 0 0.142965 0 0 0 0 0 0 0.131694 0 0.0898242 0 0 -0.0808644 0 -0.0215924 0 0.0904032 0 0.0200452 -0.00906119 -0.134318 0 0 -0.0848639 0 0.0614406 0.0682449 0 -0.12117 0.0605193 0.111048 0.0344664 0 0 -0.0845919 0.103277 -0.134491 0.13842 0 -0.140306 0.123741 0 0.118569 0 0 -0.124213 0.0726727 -0.0922391 0.0143556 0 
0 0 0 0 0 -0.0165336 0.0915116 -0.000520013 0.138646 0.089625 0 0 0.141075 0 0 0.0147716 0 0 0 -0.0957979 0 -0.0769891 0 0 0 0 0.0326895 0 -0.0202066 0.118462 0.0791848 -0.133874 0 0 -0.102875 0 -0.0137795 0 -0.0173384 0 0.0312715 0 0.0986902 0.0955028 0 -0.0948962 0 0.0240857 0 0 0 0 -0.0685072 0 0 0 0 -0.122927 0.0709346 0 -0.0908115 0 0 0 0 0.0391501 -0.128833 0 0 0 
0.0378375 0.0798121 -0.0570965 0 0.0188041 0 0 0 0 0 0 -0.134702 -0.0738523 -0.0495455 -0.140646 0 0 -0.0616671 -0.0157132 0 0 -0.108991 0.0847957 0 0 0.092076 0.0506204 0 0.0600742 0 -0.0929991 0 -0.0224436 0 0 0 0 -0.094275 0 0 -0.011128 -0.00539278 0 0.016355 0 0.125414 -0.0468987 0 0 0 0 -0.0714543 0 0 -0.110739 0.0698822 -0.0164712 0 0 -0.108267 0.0956925 0 -0.0541081 -0.111495 -0.0468884 0 0 0.135855 0 -0.109319 
-0.0821691 0 0 0 0 -0.0558778 0 0 0 0.0803685 0.0687756 0 -0.0506195 0.00289691 0.0309696 0.065768 -0.091603 0 0 0.114832 0 -0.111745 0.0357188 -0.00931738 -0.0088131 -0.0927696 0 0.132007 -0.0512349 0 0.0425533 0 0 0 0.0496038 0 0.102409 0 0.0629281 0.0763386 -0.111404 0 -0.0643392 0.059345 0.118269 0 -0.00174187 0 0 0.0643741 -0.0104234 0.0362668 -0.121366 -0.0674593 0 -0.0375415 0 -0.0372001 0 0 0.135418 0.0758724 -0.106598 0.0913772 -0.00718652 0 -0.136943 0.0229339 0.0262351 0 
-0.117794 0 -0.0408455 -0.0191273 0.0846288 -0.115587 0.040241 -0.0691751 0 0 -0.0878918 0 0 -0.0483775 0 -0.0409125 0.0423952 -0.140976 0.0583055 0 0 -0.0108 0 0 0.124937 0 -0.0796556 0.108666 -0.0216092 0.0439183 0 0 0 -0.0248139 0.115269 -0.0430363 -0.00295936 0 0 -0.00955898 0 0 0 0 0 -0.137826 -0.0255049 0.0503686 0.0669111 0.00350746 0 0.0270711 0 0 0 -0.0140717 0 0 0 0.0471843 -0.0110824 0 0.0395705 0.11779 0 0.124372 0 0 -0.0813602 0 
-0.0526009 0 0 0 -0.0541265 0 0 -0.132348 0 -0.133163 0 0 0.00163945 0.0645695 0 0 0 0.0278758 0 -0.0899089 0 0 0 0 -0.0112416 -0.00260408 -0.0708875 -0.0170754 0 0 0 -0.0975748 -0.0562529 0 0.0466364 0 -0.122024 -0.0635565 0 0 0.104759 -0.048741 -0.0364828 -0.0310155 -0.0650144 0 -0.0414867 -0.11932 0 -0.0964292 0 0 0.0605987 0 0.000424999 -0.0836615 0.0596121 0.118306 0 0.0388068 0.0515837 -0.139212 0 0 0 0.113764 0 0.138852 0.0539923 0.078138 
0 -0.00567113 0.0725106 -0.0326384 0.117365 0.0998555 0 0 0 0 0 -0.0120141 0 0.0814738 0 0 -0.0894075 0.0452748 -0.106305 -0.118473 0 0 0 0 0 0.121551 0 0 0.138654 -0.141377 0.064899 0 0 0 -0.0904183 0 0 0.0407815 0 -0.0583515 -0.139391 0.0374869 0 -0.0866577 0 0.0727672 0 0 0 0.0897777 -0.124137 0 0 0 0 0.086679 -0.0411021 0 0.144087 0.0695694 0.0263357 0 -0.0805852 0.121867 -0.00764416 -0.0944756 -0.0146835 0.0227186 0 0.0429891 
0 0.13281 0 0 -0.0615882 0.0261079 0 0 0 0 -0.0771809 0.00624056 0.141599 0 -0.010453 -0.130669 0.00320826 0.0177443 0 0 -0.02459 -0.0952725 0.0998087 0 0 0 0 0 0 0 0.0353572 -0.0750991 0.100676 0.0252971 0.0560468 0.0782213 -0.0980107 -0.0755909 6.69443e-05 -0.0442982 0.0342778 0.0640233 0 -0.0304245 0 0 -0.0775977 0.00472346 0 0.0463212 0 -0.0727895 0.0534859 0.135409 -0.127611 0.0289675 0.0492936 -0.0472099 0 0 0 0 -0.0934422 0 -0.115898 0.0048789 -0.123211 -0.0345122 0 -0.0370731 
0.0912079 0.109536 -0.0234365 0 -0.138877 0 0 0 0 0.0680288 -0.0170468 0 -0.114348 0.00255681 0.0734504 0.0677303 0.00259307 0.00437868 0 0 0 0 -0.11102 0 0 -0.0359728 0.0567366 -0.0121565 0 0.0553324 0 0 0 0 0.0319359 -0.109002 0 -0.138643 0 0 0 0 0 0 -0.127866 0 0 -0.129283 0.00520336 -0.0747216 0 0 0.0483793 0.0147673 -0.0456969 0 0 0 0 0 -0.126514 0.00131246 -0.00129155 -0.0106416 -0.0607088 0 0 0 0.0813965 -0.0733541 
-0.113296 0 0.0794909 0 0.0128415 0.119548 0.0145162 -0.131952 0 -0.02599 0.0332 0.00402244 0 0 0.00662626 -0.023825 -0.0771191 0 -0.0704442 -0.10687 0 0 0 0.137684 0 0.115812 0.0184421 -0.0340886 -0.0421305 0 0 0 0 0 0 0.0859902 -0.0293048 -0.0257175 0 0 0 -0.0825962 -0.133687 0 0 0 0.0486558 0 -0.0773099 0 0.0907033 0.0984433 0 -0.139166 -0.0867736 -0.12036 0 0 0.0833182 0 -0.0128435 -0.0868742 0 -0.0477278 0 0.00726118 0.120204 0 0 -0.000539671 
0 -0.0465041 0 -0.041262 0.0463514 0 -0.133428 0 0.0942977 0.104925 -0.129971 0 -0.133571 0.140563 0.121992 0 0 -0.051659 0.0696537 0 -0.121258 -0.0926067 -0.0229757 0.0847957 0 0.0137537 0.0590218 -0.104316 0.0569493 -0.118277 0.0284663 0 0 0.0331888 0 0 0 0.00149014 0 0 -0.0342631 0 0.087169 0.091323 0 -0.039331 0 0 0 0.0765733 0.0909422 0 -0.0249992 0 0.125459 0 0 0 0 -0.0856219 0 0.0834256 0 0.0899529 0 0 0.0637593 0 -0.0879414 0 
0 0 0.0608487 0 0 0 0 0 0 0 0 0 0.0209779 0.107934 -0.0575585 0.0377486 -0.00750305 -0.0365712 0 0 -0.117505 0 0 0.109051 0.0884694 0 0 0 0 -0.0491059 0.0177651 0 0 0 -0.128638 0.0477252 0.0507824 0 0 -0.0642904 0 0.103903 0.0778541 0 0.0424971 -0.0612393 0.0531827 0.0541836 0.0224812 0.0630359 -0.0348845 0.025299 0 0 0 0 0 0 -0.0284707 0.0390021 0 -0.138327 0 0.000779666 -0.00675581 0 -0.0979808 -0.0417425 0.0336086 0 
0 0.12506 -0.0210771 0 0 0 0 0 0 0 -0.0661415 0 0.0187757 0.0678688 0 -0.0709973 0 0.121892 0 0 0 0 0 -0.0636937 0.0763388 0.0666566 0.130921 0.0430216 -0.0729601 -0.12338 -0.143258 -0.120326 0.0493133 0.0112217 -0.104635 0 -0.125945 0 -0.0555567 0.131636 0 0 0 0.0563734 0.0600811 0 -0.138525 0 -0.117497 -0.140615 0 0 0 -0.0499016 0.0359848 -0.0230016 0.00833381 0.0277352 -0.0643298 0 0 0 -0.0929049 0 0 -0.132078 0.117467 0 0 -0.0671461 
-0.136082 -0.0927575 0 -0.0719467 0 0.0494595 0.012562 -0.0229083 0 0.136463 0.0886115 0 0 0 0 0.0827013 0 -0.0917679 0.0793898 0 0 0.0497526 0.00930173 0.0574043 -0.0760697 0.0606372 0.0456027 -0.0981686 -0.114623 0 -0.0440367 0 0.0621174 0 0 0 0.0699284 -0.0393562 0 0 0.105175 0.0576608 0.0707693 -0.0511928 0 -0.114701 0 0 0.143248 0 0 0 -0.0946593 0.0263572 0 -0.0585615 0 0.0365672 -0.0597184 -0.113752 0 0.0883162 -0.139692 0 0 0.0536134 0.116769 0.124794 0 0 
0 0.00462199 0 -0.113429 -0.119947 0 0 -0.135423 0 0 0.126189 0 0.070097 0.0126357 -0.0154684 0.0921526 0.0229378 0 -0.00586134 0 -0.0271974 0 -0.106483 0.102381 0 0 0 0 0 0 0 0 0.00518084 0 0 0.131766 0.0995115 0 0.132891 0 -0.14216 0 -0.0825488 0 0 -0.078669 0.0306291 0 -0.0425683 -0.0820586 0 0 -0.0161163 0 0.0580971 -0.00876651 -0.00359874 -0.0574683 -0.0543659 0 -0.143762 0.0489914 0 0 -0.0502089 -0.136539 0 -0.0346999 0 -0.0549326 
0.0979623 0.0251994 0 0 0 0.0134902 0.122239 -0.0966254 0 0.0349148 0 0 0 0 0 0 -0.0518021 -0.019722 0 -0.130793 -0.0206185 0 -0.0916674 0 0.0397886 0.0275242 0 0.00535582 -0.11835 0 0 0 0 -0.143937 -0.102587 0 -0.00998097 0 -0.0553218 -0.00942411 0 0 -0.0548281 0.0963609 0.0924473 0.0515574 0.134422 0 0 0.130143 0 0 -0.110615 0 0 -0.00527522 0.0656334 0 -0.134096 0 0 0.00140264 0 0.0540613 -0.0523354 0.10838 0.00341922 0 0 0.114466 
0 0 0 -0.137755 -0.0420663 0.119343 -0.140915 0 -0.130603 0 0.136672 -0.0194599 0.0128316 0.00796774 -0.103255 0.0183516 0 -0.112018 0 -0.139158 0 0 0 0 -0.0502379 0 -0.0467449 -0.0856764 0 0.0389911 0 0 0.0196269 -0.0476953 0.0116391 0.0347844 0 -0.0462983 -0.0462061 -0.0767774 -0.0997779 0.103012 0.0292951 -0.0360241 -0.0062121 -0.05039 0 0 0 0 0 0 0.0335343 0 -0.117416 0 0.015589 0 0.113791 0 0 0 0 0 0 0.135536 0.000440632 0 0 -0.0767118 
-0.0595615 0 0.021668 0 -0.0892055 0 0 -0.0033069 0 0.0857422 0 0 0 0 0 0 0 0 -0.0295726 0.0299461 -0.0360028 0.0118017 0 -0.0115685 0 0.0380296 0.0704027 0 0 0 0 0.105973 0 0.0287314 0 -0.113034 0 -0.0719023 -0.119124 0 0 0 0 0.125599 0 -0.0303775 0 -0.136756 0 0 0 -0.0248135 0.0526525 -0.070686 0 0 0 0 0.0645368 0 0.0137663 0 0 0 -0.0991043 0 -0.115714 0 0.0776956 0.0498866 
0 0.101322 0 0.0488251 0 0 -0.112735 0.122952 0.0776983 -0.118502 0 -0.140878 -0.0946187 0 0 0.023155 0 -0.0790182 0 0 -0.103974 0.0721901 0 -0.0233926 0.137784 0 0 -0.0667092 0 0 0 0.0101611 -0.0356848 0 0.059266 0 -0.0619868 0 0 -0.128935 -0.0257289 0 0 0 0 0 0.0830741 0 0 0.00266535 0 0 0 -0.0155381 -0.0793033 0 0 0 0 0 0 0 0 0 0.121189 0.0681379 0.138394 0.141712 -0.0067401 0 
0 0.0247671 0 0.0484434 0 -0.111502 0.123579 0.0713659 -0.0102743 0.000181241 -0.00842278 0 0 0.0940329 0 0.0880189 -0.00165088 0.0612379 -0.125418 0 0 0.0589018 0 -0.0270317 0.0734073 0.0221182 0 -0.132564 0 -0.0523741 0.0922972 0 0.0419223 0 -0.0144666 0 0 0 -0.0757163 0 -0.11663 -0.137731 0 -0.020355 -0.131919 0.0978622 0.0112069 0.0434888 -0.0870757 0.0387003 0 -0.0637851 0.0478856 0.1083 0.0687661 0.106541 0 0.134319 0 0.0252199 0 0.100964 0 0 0 0 0.0197167 0.136068 0 0 
0 0.121011 0 0.0244885 -0.103599 -0.0429097 0 0 0 -0.130025 -0.130087 0 0 -0.00384111 0 0 0.0114453 0 -0.133923 0 0 0 0 0 0 0 0 0 0.0879072 0 0 0 0 0.0441769 -0.0284611 -0.0717046 0.0306772 -0.00377569 0 -0.136738 0.0453255 -0.0128645 0 0.0606448 0.000798148 0 0.0771141 0 -0.0730474 -0.127297 0.136411 -0.0212294 0 0 -0.0961282 -0.024072 -0.101445 0 0.131358 0.0703275 -0.0998622 -0.109678 0 0.13546 0 0 0.137572 0 0 0.114241 
0.071564 0 0 0 0.0830648 0 0 0 0 0 -0.0614981 0.105662 0 0 0.091725 0 0.0827775 -0.0465488 0.00807215 0.0378014 -0.0525527 -0.0544958 0 0 0 -0.0619212 0 0.0656475 0.0879142 0 0 0.0622357 -0.0210405 0 -0.134664 0.0225874 0 0 0 -0.0254982 0 0.0663569 0 0 0.127417 0 0 0 0 0 0 0.1074 0 -0.0258438 -0.0405483 0.0483331 0.107267 0.0662568 0 0.0474061 0.0631591 -0.0731025 0.0499442 0.091924 0 0.0948682 0.0913683 0.0851846 0.0773461 0 
-0.0929055 0.0492403 0 0 0.111885 0.0147586 0 0 0 -0.107265 0 0 0 0 -0.0302329 -0.117505 0 0.118271 -0.0381705 0.111927 0 0 -0.120045 -0.120768 0.0398162 0 0 0 -0.0339546 -0.0786728 0 0 0 0 0 0 0 0.109166 -0.0658404 0.0944229 0.0353147 0 0.0773888 0 0 0.104605 -0.0802962 0 -0.0257214 0.119926 0 -0.021294 0.0754167 0.0379672 0 -0.0489258 0.0591927 0 0.00920776 0 -0.0732574 0 0 0.0114341 0.112312 0 0.063626 0.0920398 0.0138354 0 
0 -0.0582939 0 0.124081 0 0 0 -0.0891775 0 0 -0.113981 0.135588 0 0 -0.00178777 0.1112 0 0 0 -0.136477 0 0.0465808 0 0 0.0596879 0.112368 0 -0.101292 0 -0.140903 0.0397358 0 0.0309164 0 0 0.018922 0 -0.0984287 -0.117394 0 0 -0.0982519 -0.0658593 0.0539328 -0.102471 0 0 0.0650085 0.0817102 0 -0.0229618 -0.0684455 0 0 0.0377588 0 0 0.0436476 0 0 0 0.0798461 0 0 -0.114159 -0.136592 0 0 0 0 
0 0 0 0 0 0 0.0922238 0 0 0 0 0 -0.115808 0 -0.0544393 0 0 0 0.0208289 0 0 0 -0.0894642 0 0 0 0 -0.0837806 0 0 0.0231967 0 0 0 0.104297 0.100059 0 -0.0753517 -0.0772864 0 0 -0.0202287 -0.14202 0.0460584 0 -0.121329 -0.0174712 0.0626849 0 -0.0725644 -0.0307976 -0.113542 0.141785 0 0 0 -0.117613 0 0 0 0.141952 -0.12178 0 0 -0.0871447 0 0 0.00942227 -0.022402 0 
0 0 -0.0552355 0 -0.0531481 -0.0602486 0.0701713 -0.0686154 0.117273 0.0138647 0.027037 0 0 -0.0392283 0.0605063 0.0869249 -0.0847025 -0.0688426 0.113964 -0.0199683 0.0121184 -0.00361643 0.120289 0 0 0 0.0640944 0 0 0 -0.0374092 0.0294451 0 -0.0544564 -0.0250344 -0.108803 0.0910374 0 -0.0971652 0 0 0 0.0619139 -0.0463306 -0.0419479 -0.103706 0 0.111208 0 -0.0706094 -0.000584054 0.093943 0 0 -0.0395683 0 -0.0929386 -0.026966 0 0.0385644 0 0 0 0.0618999 0 0 -0.0191665 -0.103026 0 0 
0 0 0 0 0 0 -0.00834657 0 0 0 0 0 -0.0657019 0.0658929 0 -0.114692 0.104901 0.0134724 -0.129957 0 -0.088575 0.01028 0 -0.0108889 0 -0.0825226 0.118025 0 -0.0260636 0 -0.0906135 0 0.119687 -0.0805894 0.000925356 0 -0.13001 0.111061 0 0 0 0 -0.0547359 0.0600879 0 0 0 0.0140018 0 0 0 0 -0.102675 0 0 0 0 0 0 0.140566 -0.045221 0 0 0.0246086 0 0 0 0 0.0112656 0 
0 -0.0112674 0.0255562 -0.129536 0 0 0 0 0 0 0 -0.048785 0 -0.0745756 0.0484521 0 0 0 0.0956167 0 0 0 0 -0.0633123 0.0920367 0 -0.0568948 -0.0118111 0 0.0827657 0.108713 0 0 -0.0531951 0 -0.124002 -0.00395239 0.12936 -0.135709 0 0 0 0.100461 0 0 0 0 0.135603 0.10711 0 0 0.12214 0.0178583 0 0 -0.0911147 0 0 -0.00360476 0 0.110895 0 -0.0363568 0 -0.080304 0 0.112193 0.0475635 -0.0699046 0 
0 0 -0.0648882 0.0735912 0.0353259 0.033851 0 -0.000964771 0.0658819 0.142963 0 0 0.100849 0 0.09811 -0.00591195 0.033133 0 0 0.0548559 0 0.134375 -0.116093 0 0.066569 0.0148236 0 0 0 0.0969911 0 -0.138919 0 0 0 0 0 0 0 0 -0.0188945 0 -0.108446 0 -0.118479 0 0 0.104703 0.00083157 0.119608 0 0.130974 0.0674586 0 0.0751053 0.0247314 -0.0501481 0 -0.0833654 0 0 0 -0.134657 0 -0.108728 0 0.0321348 0 0 -0.0156592 
-0.107198 -0.121004 -0.0705975 0.10076 0.0496779 -0.0308456 0.0538005 -0.0838356 0 0.0910341 0.0897861 0.121538 0 0.00905165 0 0 0.0461594 0 0 -0.0811569 0 -0.0073466 0.0337585 0.030266 0.110723 0.0686429 0.0903679 0.00818891 -0.104182 0 0 -0.0653746 0 0 0 0 -0.00602216 -0.0841945 0 -0.0976735 0.0112859 0 0 0.0575885 0.11917 -0.0168186 0 -0.0293561 0 0 0.00908 0 0 -0.0523345 0 -0.00944455 -0.114498 0 0 -0.0354306 -0.0268059 0 0 0 0 0 0 0.142155 0.00638867 0 
0.0619015 0 -0.0734263 0.0691637 0 0 0 -0.127422 0.0805281 0 -0.101031 -0.120306 0.0477549 0.033869 0.0760548 -0.00887801 0 0.141918 0 0.0594121 -0.0482688 0 -0.123513 0 -0.144125 0 -0.0130089 -0.141797 0 0.0745108 0 -0.022142 0.0812286 0 0 0 0 0.0720647 -0.0918542 -0.0864478 -0.0654116 0 -0.0445168 0 0 0.0959099 0 -0.0610863 0 0.11411 0 0 -0.0606994 0 -0.0507842 -0.143591 0 0.0728813 0 0.0557384 0.124484 0 0.0908197 0.0953251 0.045984 0 -0.0112587 -0.00448064 0 -0.043038 
0 0.0406703 0.0707955 0.0233907 0.0845469 0 0 0 0 0.0401084 0 0 -0.0826485 0 -0.00278924 0 0 0 0 0 -0.000582507 0.0582797 0 -0.0454578 -0.0713636 -0.0859533 -0.115433 0 -0.0820848 0.0561582 0 0 -0.0955692 0 0 0 0 -0.109685 -0.129915 0 0 0 -0.10775 0 0 0.0704477 0.0800366 -0.0745075 0 0 0 0 0 0 -0.089332 0 0.117943 -0.0200477 -0.122445 0 -0.107952 0.0334607 0.118057 0 0.114664 0 0 0.141356 0 0 
-0.124323 0 0 0 0 0 0 -0.137188 -0.00833757 0 0.0136255 -0.0974567 -0.0188633 0 -0.0452142 -0.102616 0 0 0 0 -0.0945401 0 0 0.110395 0.144004 0 0.128724 0 0.0869799 0.126651 0 0 0.1258 0 0 -0.0474755 -0.0764808 0.13387 0 -0.0455864 -0.0466413 -0.0631124 0.139568 0 0 -0.0608373 0 0 0 -0.00293432 -0.115763 0.0449759 0 0 0.0718412 0.0746228 0 0 0 0.0790983 0.0416743 0 0 0 0 0 0 0 0 0.0858991 
0.0920848 0.0829558 0 0 -0.090869 -0.0336258 -0.142597 0 0.141579 0.0580418 0 0 0 -0.142803 0.0037293 0 0 0 0 0 0 0 0 0.113234 0 -0.111241 0 -0.0368637 -0.123844 -0.0796756 0 0 0 -0.0543884 0.00469485 -0.0744664 -0.0254916 0 0.0525174 -0.0930301 0 -0.107309 0 0.105776 0 -0.0879388 0 0.117944 -0.017838 0.0782863 0 0 0 0.0613863 0 0 -0.00436454 0 0 0 0 -0.0902559 0 -0.0531568 -0.127038 0 0 -0.0353192 0 0 
0 -0.0735828 0 0 0.113942 0 0.0309208 0 0.0178408 0 0 0 0 0 0 0 0 0 0 0.0902742 -0.108291 0 0 0 0 0 0 0 0 0 0 0 0.0969052 0 0 0 0 0 0.00812098 0 0.0845681 -0.0837447 0 0 0 0 -0.0238386 0.0672904 -0.0621843 -0.0100607 0 0.109653 0 -0.144241 0.0694271 -0.0228107 0 -0.126166 -0.0585099 -0.106245 0.0417266 0 0 0 0.142916 0.130813 0 0 0 -0.128727 
0 0 0.0565492 0.125501 0 0 0.00394628 0 0 0 -0.126899 0 -0.109691 -0.0546407 0 -0.0444816 0.12909 0 0.0104236 -0.012354 0.0493907 0.00703076 -0.0154031 0 0 0 0.136643 0 0.0144239 -0.120231 0 -0.0855142 0 0 0 0.0724839 0.074086 0.137476 0 0 0 -0.0700579 0 0 0.0624331 -0.120237 -0.107989 -0.00778666 0 0.12528 -0.0959014 0 -0.0332467 0 0 -0.0912957 0.130243 0 -0.0740625 -0.0568144 -0.121987 0.00978883 0 -0.02885 0.0873867 0.0988803 0.050656 -0.0839356 0.0338094 0 
-0.143845 0.0492963 0.102283 -0.101852 -0.0188285 0 0.0687648 0.140294 0 0.0541885 -0.0140163 -0.0281872 0 0.0514128 0.0764377 0.0177206 0 0.11739 0 0 0.023122 -0.103429 0 0.0221501 0.0419255 0 0.0378113 0 -0.0524081 -0.104375 0.0369404 -0.113427 0.077794 -0.0885774 -0.0711495 -0.0759107 0 0 -0.0816256 0 0.12846 0 0 -0.102731 0.0574386 -0.00770233 -0.117328 0 0.111334 0 0.142316 -0.0259151 0 0.0695995 -0.102824 0.0738374 0 0 -0.138899 0 0.00525987 0 0.0469368 0.0519254 0 0 0 -0.057373 -0.023976 0 
0 -0.0691041 -0.0651493 0 -0.0309721 0 -0.101543 -0.10016 0 0.116059 0 -0.0914488 0 -0.0541369 0 0.11988 0 -0.0819004 -0.123133 0.0252873 -0.114012 0 0 0 -0.100915 0.136475 0.118485 0 0 0 -0.0116319 -0.0834835 -0.107056 -0.0924588 -0.01774 0.118755 0 0 -0.000140348 -0.00917195 -0.110161 0.085689 0 0 0 0.0507355 0 -0.116645 0 0 0.141054 -0.134081 0.0261807 0 -0.135967 0 0.053208 -0.066936 -0.0425979 0 -0.00835119 0 0 -0.0464376 0 0 0.125354 -0.112347 0.0257493 0 
0 0 0.0250213 0 0.132524 -0.121447 0.132972 0 -0.102776 0 0 0 0 0.00515203 0.014077 -0.0080955 0 -0.085223 0.0684162 0 -0.0849682 -0.131672 0 0 0.072577 -0.132326 0.12532 0.0011653 -0.00590506 0 0.0998592 0 0 0 0 0.111299 0 0 0.0714891 0 -0.1187 -0.0477285 0 0 0 0 -0.142796 0.0251813 0 -0.118061 -0.0862787 0 0 0 0 -0.0114323 -0.0266665 0 0 0 0 -0.0407222 0 -0.0263063 -0.0419983 0.0540814 0 0.0556934 -0.0196098 0 
0 0 0.00296918 0.0514478 -0.0957932 -0.13929 0 -0.0394233 0 0 0 0.00476524 0 0 0 0.0213236 0 -0.137517 0 0.0321042 0.0830616 0 -0.0180593 0 -0.111019 0.00315059 -0.142827 0 0 0.102986 0 0.102342 -0.0610716 0 0 0 0 0.00755512 0.0839988 -0.062833 0 0 -0.0804152 0.0384325 0 0 0 0 0 -0.125248 0 0 0.00474105 0 0 -0.0137608 0 0.00464412 0 -0.132209 -0.0473123 -0.0138531 0 0 0.0873075 -0.0613094 -0.109382 0 -0.00175952 0 
0 0 0 -0.0357842 -0.084323 -0.102162 -0.0474349 0.016523 0.0590888 0 0 -0.092758 0.0349295 0 0.0635732 0 0.0985987 -0.0264922 0.0186548 -0.0880938 0 0.0205297 0.0158638 0 0 -0.00967625 -0.0950072 -0.0572354 0 0 0 -0.0395925 0.118461 0 -0.135348 0 -0.126755 0 0 -0.0709376 0 0 -0.140396 -0.0992947 -0.0161998 0 0 0.127391 -0.0453516 0.00682317 0.120032 -0.0219272 0.101018 0.103146 0 0 0 0 0.0126974 0 0 0.136805 0 -0.106897 -0.0816468 0 0 0 0 0 
0 0 0 0 0 -0.115942 -0.119371 0 0.105835 0 0 0 0.0695002 0.0737889 0 0 0 -0.0114306 0.143169 0.1423 -0.0862604 0.102699 0 0 0 -0.0269276 0 -0.0018904 -0.0934368 -0.0797312 -0.0449497 -0.111542 0.0394316 0 0 0 -0.00225224 0.113482 0 -0.101927 -0.0170043 0 0.0320489 0 0 -0.0978007 0 0 0 0 0 0 0 -0.00324621 0 0 0 0.129524 0 -0.0171362 0.110424 0 0 -0.0441678 -0.135138 0 0 0.0560545 0 0 
